{"learner":{"attributes":{"best_iteration":"401","best_score":"2.6237564493815104","scikit_learn":"{\"_estimator_type\": \"regressor\"}"},"feature_names":["zone_risk_score","earnings_baseline","trust_score","past_claims_count","claim_approval_rate","weeks_active","forecast_rain_mm","forecast_aqi","tier_basic","tier_standard","tier_premium","city_bangalore","city_mumbai","city_delhi","city_chennai","city_hyderabad","month"],"feature_types":["int","float","int","int","float","int","float","int","int","int","int","int","int","int","int","int","int"],"gradient_booster":{"model":{"gbtree_model_param":{"num_parallel_tree":"1","num_trees":"452"},"iteration_indptr":[0,1,2,3,4,5,6,7,8,9,10,11,12,13,14,15,16,17,18,19,20,21,22,23,24,25,26,27,28,29,30,31,32,33,34,35,36,37,38,39,40,41,42,43,44,45,46,47,48,49,50,51,52,53,54,55,56,57,58,59,60,61,62,63,64,65,66,67,68,69,70,71,72,73,74,75,76,77,78,79,80,81,82,83,84,85,86,87,88,89,90,91,92,93,94,95,96,97,98,99,100,101,102,103,104,105,106,107,108,109,110,111,112,113,114,115,116,117,118,119,120,121,122,123,124,125,126,127,128,129,130,131,132,133,134,135,136,137,138,139,140,141,142,143,144,145,146,147,148,149,150,151,152,153,154,155,156,157,158,159,160,161,162,163,164,165,166,167,168,169,170,171,172,173,174,175,176,177,178,179,180,181,182,183,184,185,186,187,188,189,190,191,192,193,194,195,196,197,198,199,200,201,202,203,204,205,206,207,208,209,210,211,212,213,214,215,216,217,218,219,220,221,222,223,224,225,226,227,228,229,230,231,232,233,234,235,236,237,238,239,240,241,242,243,244,245,246,247,248,249,250,251,252,253,254,255,256,257,258,259,260,261,262,263,264,265,266,267,268,269,270,271,272,273,274,275,276,277,278,279,280,281,282,283,284,285,286,287,288,289,290,291,292,293,294,295,296,297,298,299,300,301,302,303,304,305,306,307,308,309,310,311,312,313,314,315,316,317,318,319,320,321,322,323,324,325,326,327,328,329,330,331,332,333,334,335,336,337,338,339,340,341,342,343,344,345,346,347,348,349,350,351,352,353,354,355,356,357,358,359,360,361,362,363,364,365,366,367,368,369,370,371,372,373,374,375,376,377,378,379,380,381,382,383,384,385,386,387,388,389,390,391,392,393,394,395,396,397,398,399,400,401,402,403,404,405,406,407,408,409,410,411,412,413,414,415,416,417,418,419,420,421,422,423,424,425,426,427,428,429,430,431,432,433,434,435,436,437,438,439,440,441,442,443,444,445,446,447,448,449,450,451,452],"tree_info":[0,0,0,0,0,0,0,0,0,0,0,0,0,0,0,0,0,0,0,0,0,0,0,0,0,0,0,0,0,0,0,0,0,0,0,0,0,0,0,0,0,0,0,0,0,0,0,0,0,0,0,0,0,0,0,0,0,0,0,0,0,0,0,0,0,0,0,0,0,0,0,0,0,0,0,0,0,0,0,0,0,0,0,0,0,0,0,0,0,0,0,0,0,0,0,0,0,0,0,0,0,0,0,0,0,0,0,0,0,0,0,0,0,0,0,0,0,0,0,0,0,0,0,0,0,0,0,0,0,0,0,0,0,0,0,0,0,0,0,0,0,0,0,0,0,0,0,0,0,0,0,0,0,0,0,0,0,0,0,0,0,0,0,0,0,0,0,0,0,0,0,0,0,0,0,0,0,0,0,0,0,0,0,0,0,0,0,0,0,0,0,0,0,0,0,0,0,0,0,0,0,0,0,0,0,0,0,0,0,0,0,0,0,0,0,0,0,0,0,0,0,0,0,0,0,0,0,0,0,0,0,0,0,0,0,0,0,0,0,0,0,0,0,0,0,0,0,0,0,0,0,0,0,0,0,0,0,0,0,0,0,0,0,0,0,0,0,0,0,0,0,0,0,0,0,0,0,0,0,0,0,0,0,0,0,0,0,0,0,0,0,0,0,0,0,0,0,0,0,0,0,0,0,0,0,0,0,0,0,0,0,0,0,0,0,0,0,0,0,0,0,0,0,0,0,0,0,0,0,0,0,0,0,0,0,0,0,0,0,0,0,0,0,0,0,0,0,0,0,0,0,0,0,0,0,0,0,0,0,0,0,0,0,0,0,0,0,0,0,0,0,0,0,0,0,0,0,0,0,0,0,0,0,0,0,0,0,0,0,0,0,0,0,0,0,0,0,0,0,0,0,0,0,0,0,0,0,0,0,0,0,0,0,0,0,0,0,0,0,0,0,0,0,0,0,0,0,0,0,0,0,0,0,0,0,0,0,0,0,0,0,0,0,0,0,0,0,0,0,0,0,0],"trees":[{"base_weights":[3.4046268E-1,-2.999659E1,8.990986E1,-3.685055E1,-2.6092455E1,8.275584E1,9.626019E1,-4.0904484E1,-3.0365404E1,-3.1345678E1,-2.2534157E1,7.521248E1,8.765811E1,8.780074E1,1.0113335E2,-2.680448E1,-4.2869583E1,-2.7492418E1,-3.921181E1,-2.5687105E1,-3.6403854E1,-2.576481E1,-1.8772245E1,7.83484E1,3.3871276E0,4.7298846E0,8.2228004E1,4.704023E0,4.1176815E0,5.407875E0,9.576899E1,-1.4537567E1,-3.3643696E1,-3.8096203E1,-4.6290005E1,-3.296289E1,-2.3484295E1,-4.3310673E1,-2.9342247E1,-1.5304665E1,-2.7686132E1,-3.8009514E1,-2.2865795E1,-1.9369259E1,-2.8082123E1,-1.5163141E1,-2.3255013E1,4.453397E0,3.7987885E0,4.743279E0,7.951398E1,5.3509707E0,4.68608E0,-1.2984883E0,-3.6303154E-1,-1.8931471E0,-1.1758881E0,-2.0044112E0,-1.5235233E0,-2.3687494E0,-1.8270422E0,-1.2962197E0,-1.8108128E0,-7.078613E-2,-1.259527E0,-2.2663834E0,-1.3792611E0,-5.811373E-1,-1.5641521E0,-5.9109503E-1,-1.3329074E0,-1.4604031E0,-7.149966E-1,-1.3163542E0,-2.0114892E0,-8.7745094E-1,-1.65735E0,-1.440708E0,-8.4393805E-1,-1.2961829E0,-1.6142714E0,-8.137987E-1,-1.5547979E-1,-1.3694699E0,-9.318002E-1,4.165333E0,3.7195156E0],"categories":[],"categories_nodes":[],"categories_segments":[],"categories_sizes":[],"default_left":[0,0,0,0,0,0,0,0,0,0,0,0,0,0,0,0,0,0,0,0,0,0,0,0,0,0,0,0,0,0,0,0,0,0,0,0,0,0,0,0,0,0,0,0,0,0,0,0,0,0,0,0,0,0,0,0,0,0,0,0,0,0,0,0,0,0,0,0,0,0,0,0,0,0,0,0,0,0,0,0,0,0,0,0,0,0,0],"id":0,"left_children":[1,3,5,7,9,11,13,15,17,19,21,23,25,27,29,31,33,35,37,39,41,43,45,47,-1,-1,49,-1,-1,-1,51,53,55,57,59,61,63,65,67,69,71,73,75,77,79,81,83,-1,-1,-1,85,-1,-1,-1,-1,-1,-1,-1,-1,-1,-1,-1,-1,-1,-1,-1,-1,-1,-1,-1,-1,-1,-1,-1,-1,-1,-1,-1,-1,-1,-1,-1,-1,-1,-1,-1,-1],"loss_changes":[2.621622E7,1.91883E5,1.0291E5,6.74475E4,8.51805E4,3.6102E4,4.4158E4,4.331525E4,2.4559625E4,5.20955E4,3.2848875E4,5.5005E3,1.83555E4,8.58475E3,2.01425E4,1.6201406E4,2.12E4,1.5993875E4,8.633125E3,1.7794625E4,2.03405E4,2.1281938E4,2.020675E4,1.32975E3,0E0,0E0,6.056E3,0E0,0E0,0E0,7.295E2,5.881092E3,4.5293438E3,7.7794375E3,6.88125E3,6.4054062E3,1.6717875E4,4.1661562E3,2.2113672E3,5.3749766E3,1.4552E4,2.1526375E4,5.2075E3,8.800484E3,8.9466875E3,9.430844E3,1.0274594E4,0E0,0E0,0E0,2.5825E2,0E0,0E0,0E0,0E0,0E0,0E0,0E0,0E0,0E0,0E0,0E0,0E0,0E0,0E0,0E0,0E0,0E0,0E0,0E0,0E0,0E0,0E0,0E0,0E0,0E0,0E0,0E0,0E0,0E0,0E0,0E0,0E0,0E0,0E0,0E0,0E0],"parents":[2147483647,0,0,1,1,2,2,3,3,4,4,5,5,6,6,7,7,8,8,9,9,10,10,11,11,12,12,13,13,14,14,15,15,16,16,17,17,18,18,19,19,20,20,21,21,22,22,23,23,26,26,30,30,31,31,32,32,33,33,34,34,35,35,36,36,37,37,38,38,39,39,40,40,41,41,42,42,43,43,44,44,45,45,46,46,50,50],"right_children":[2,4,6,8,10,12,14,16,18,20,22,24,26,28,30,32,34,36,38,40,42,44,46,48,-1,-1,50,-1,-1,-1,52,54,56,58,60,62,64,66,68,70,72,74,76,78,80,82,84,-1,-1,-1,86,-1,-1,-1,-1,-1,-1,-1,-1,-1,-1,-1,-1,-1,-1,-1,-1,-1,-1,-1,-1,-1,-1,-1,-1,-1,-1,-1,-1,-1,-1,-1,-1,-1,-1,-1,-1],"split_conditions":[1E0,4E1,5E1,9E0,6E0,6E0,6E0,6.8E-1,8.8E1,7.3E1,7E1,8.5E1,7.1E1,7.1E1,7.1E1,7E1,7.1E1,1.56E2,3.1E1,7.02E-1,2.225E1,7.63E-1,7.7E1,6.99E-1,3.3871276E0,4.7298846E0,6.99E-1,4.704023E0,4.1176815E0,5.407875E0,7E-1,1.38E2,6.51E-1,7E0,2.089E1,7.94E-1,6.46E-1,1E0,5.6175E2,8.3E1,2.295E1,7E-1,1E0,1.06E2,8.4E1,2.597E1,1.79E2,4.453397E0,3.7987885E0,4.743279E0,8.7E1,5.3509707E0,4.68608E0,-1.2984883E0,-3.6303154E-1,-1.8931471E0,-1.1758881E0,-2.0044112E0,-1.5235233E0,-2.3687494E0,-1.8270422E0,-1.2962197E0,-1.8108128E0,-7.078613E-2,-1.259527E0,-2.2663834E0,-1.3792611E0,-5.811373E-1,-1.5641521E0,-5.9109503E-1,-1.3329074E0,-1.4604031E0,-7.149966E-1,-1.3163542E0,-2.0114892E0,-8.7745094E-1,-1.65735E0,-1.440708E0,-8.4393805E-1,-1.2961829E0,-1.6142714E0,-8.137987E-1,-1.5547979E-1,-1.3694699E0,-9.318002E-1,4.165333E0,3.7195156E0],"split_indices":[10,0,0,3,3,3,3,4,2,2,0,2,2,2,2,2,2,7,0,4,6,4,2,4,0,0,4,0,0,0,4,7,4,3,6,4,4,14,1,0,6,4,12,7,2,6,7,0,0,0,2,0,0,0,0,0,0,0,0,0,0,0,0,0,0,0,0,0,0,0,0,0,0,0,0,0,0,0,0,0,0,0,0,0,0,0,0],"split_type":[0,0,0,0,0,0,0,0,0,0,0,0,0,0,0,0,0,0,0,0,0,0,0,0,0,0,0,0,0,0,0,0,0,0,0,0,0,0,0,0,0,0,0,0,0,0,0,0,0,0,0,0,0,0,0,0,0,0,0,0,0,0,0,0,0,0,0,0,0,0,0,0,0,0,0,0,0,0,0,0,0,0,0,0,0,0,0],"sum_hessian":[9.646E3,7.206E3,2.44E3,2.612E3,4.594E3,1.154E3,1.286E3,1.604E3,1.008E3,1.852E3,2.742E3,4.61E2,6.93E2,4.77E2,8.09E2,1.98E2,1.406E3,7.64E2,2.44E2,8.77E2,9.75E2,1.472E3,1.27E3,3.18E2,1.43E2,2.97E2,3.96E2,2.14E2,2.63E2,3.42E2,4.67E2,7.2E1,1.26E2,5.92E2,8.14E2,3.2E2,4.44E2,1.7E2,7.4E1,1.43E2,7.34E2,8.7E2,1.05E2,3.94E2,1.078E3,7.06E2,5.64E2,5.1E1,2.67E2,6.4E1,3.32E2,6.4E1,4.03E2,2.7E1,4.5E1,8.7E1,3.9E1,4.66E2,1.26E2,7.29E2,8.5E1,1.04E2,2.16E2,3.2E1,4.12E2,1.49E2,2.1E1,8E0,6.6E1,1.11E2,3.2E1,6.58E2,7.6E1,1.41E2,7.29E2,7.1E1,3.4E1,8E1,3.14E2,7.17E2,3.61E2,6.46E2,6E1,2.95E2,2.69E2,1.82E2,1.5E2],"tree_param":{"num_deleted":"0","num_feature":"17","num_nodes":"87","size_leaf_vector":"1"}},{"base_weights":[1.7676824E-1,-2.8365232E1,8.533234E1,-9.721938E0,-6.504418E1,7.8483795E1,9.129775E1,-1.54340725E1,-4.5904517E0,-6.936322E1,-6.290679E1,8.4719696E1,7.361282E1,9.798029E1,8.5928856E1,-9.415458E0,-1.9806923E1,7.757401E-1,-8.309683E0,-3.2658837E0,-7.3264725E1,-3.0336185E0,-3.224241E0,4.785571E0,8.20545E1,4.0832253E0,7.202372E1,5.477716E0,4.784386E0,4.805584E0,8.400702E1,8.0917615E-1,-1.1420672E1,-7.9709115E0,-2.2151663E1,-5.70379E-1,6.343462E0,1.8937986E0,-1.033072E1,-3.0960188E0,-3.7395203E0,4.3126283E0,3.9029107E0,3.5030053E0,3.878341E0,8.042383E1,4.455948E0,-7.808944E-2,2.1135227E-1,-6.9592917E-1,-1.6006613E-1,-1.320083E-1,-5.9418815E-1,-9.317069E-1,-1.2879213E0,3.2978627E-1,-7.988306E-2,4.6342045E-1,2.7585554E-1,-1.3811243E-1,1.7306013E-1,-5.9706014E-1,-2.0521455E-1,4.2799945E0,3.843551E0],"categories":[],"categories_nodes":[],"categories_segments":[],"categories_sizes":[],"default_left":[0,0,0,0,0,0,0,0,0,0,0,0,0,0,0,0,0,0,0,0,0,0,0,0,0,0,0,0,0,0,0,0,0,0,0,0,0,0,0,0,0,0,0,0,0,0,0,0,0,0,0,0,0,0,0,0,0,0,0,0,0,0,0,0,0],"id":1,"left_children":[1,3,5,7,9,11,13,15,17,19,21,23,25,27,29,31,33,35,37,-1,39,-1,-1,-1,41,-1,43,-1,-1,-1,45,47,49,51,53,55,57,59,61,-1,-1,-1,-1,-1,-1,63,-1,-1,-1,-1,-1,-1,-1,-1,-1,-1,-1,-1,-1,-1,-1,-1,-1,-1,-1],"loss_changes":[2.3498168E7,4.9508755E6,9.1972E4,1.4068216E5,1.8147E4,2.8284E4,3.7882E4,5.960625E4,5.0521168E4,7.796E3,1.8685E3,6.54175E3,2.36825E3,4.568E3,6.0765E3,1.9651781E4,3.631475E4,7.7763203E3,3.0849719E4,0E0,2.24375E3,0E0,0E0,0E0,1.2E1,0E0,5.1575E2,0E0,0E0,0E0,4.1175E3,1.2872449E3,1.6399219E4,4.535164E3,1.3433125E4,6.164346E3,4.3562646E2,1.8195117E3,1.2463781E4,0E0,0E0,0E0,0E0,0E0,0E0,2.63E2,0E0,0E0,0E0,0E0,0E0,0E0,0E0,0E0,0E0,0E0,0E0,0E0,0E0,0E0,0E0,0E0,0E0,0E0,0E0],"parents":[2147483647,0,0,1,1,2,2,3,3,4,4,5,5,6,6,7,7,8,8,9,9,10,10,11,11,12,12,13,13,14,14,15,15,16,16,17,17,18,18,20,20,24,24,26,26,30,30,31,31,32,32,33,33,34,34,35,35,36,36,37,37,38,38,45,45],"right_children":[2,4,6,8,10,12,14,16,18,20,22,24,26,28,30,32,34,36,38,-1,40,-1,-1,-1,42,-1,44,-1,-1,-1,46,48,50,52,54,56,58,60,62,-1,-1,-1,-1,-1,-1,64,-1,-1,-1,-1,-1,-1,-1,-1,-1,-1,-1,-1,-1,-1,-1,-1,-1,-1,-1],"split_conditions":[1E0,1E0,7E0,7E0,5E0,7.1E1,7.1E1,7.1E1,7.1E1,7.4E1,7.1E1,7.02E-1,7.02E-1,7E-1,7E-1,6.99E-1,7E-1,1.565E1,7E-1,-3.2658837E0,6.99E-1,-3.0336185E0,-3.224241E0,4.785571E0,2.5E1,4.0832253E0,1.464E1,5.477716E0,4.784386E0,4.805584E0,9.7E0,8.29E0,1.582E1,8.5E1,8.6E1,7.02E-1,7.18E-1,9E0,1.565E1,-3.0960188E0,-3.7395203E0,4.3126283E0,3.9029107E0,3.5030053E0,3.878341E0,2.1E1,4.455948E0,-7.808944E-2,2.1135227E-1,-6.9592917E-1,-1.6006613E-1,-1.320083E-1,-5.9418815E-1,-9.317069E-1,-1.2879213E0,3.2978627E-1,-7.988306E-2,4.6342045E-1,2.7585554E-1,-1.3811243E-1,1.7306013E-1,-5.9706014E-1,-2.0521455E-1,4.2799945E0,3.843551E0],"split_indices":[10,8,3,3,3,2,2,2,2,2,2,4,4,4,4,4,4,6,4,0,4,0,0,0,5,0,6,0,0,0,6,6,6,2,2,4,4,3,6,0,0,0,0,0,0,5,0,0,0,0,0,0,0,0,0,0,0,0,0,0,0,0,0,0,0],"split_type":[0,0,0,0,0,0,0,0,0,0,0,0,0,0,0,0,0,0,0,0,0,0,0,0,0,0,0,0,0,0,0,0,0,0,0,0,0,0,0,0,0,0,0,0,0,0,0,0,0,0,0,0,0,0,0,0,0,0,0,0,0,0,0,0,0],"sum_hessian":[9.666E3,7.24E3,2.426E3,4.801E3,2.439E3,1.136E3,1.29E3,2.271E3,2.53E3,7.97E2,1.642E3,4.91E2,6.45E2,5.67E2,7.23E2,9.57E2,1.314E3,1.036E3,1.494E3,4E2,3.97E2,6.96E2,9.46E2,8.9E1,4.02E2,9.8E1,5.47E2,8.6E1,4.81E2,1.07E2,6.16E2,1.57E2,8E2,2.18E2,1.096E3,8.35E2,2.01E2,2.47E2,1.247E3,5.2E1,3.45E2,1.86E2,2.16E2,4.14E2,1.33E2,3.72E2,2.44E2,9.3E1,6.4E1,6.13E2,1.87E2,9.3E1,1.25E2,5.58E2,5.38E2,1.04E2,7.31E2,4.2E1,1.59E2,6.2E1,1.85E2,9.9E2,2.57E2,1.42E2,2.3E2],"tree_param":{"num_deleted":"0","num_feature":"17","num_nodes":"65","size_leaf_vector":"1"}},{"base_weights":[-1.2165233E-1,2.1113298E1,-6.182842E1,8.0717476E1,-9.330551E0,-6.598448E1,-5.9722763E1,7.327368E1,8.55126E1,-1.540167E1,-5.1297774E0,-3.0807438E0,-6.924861E1,-2.9298656E0,-3.1288688E0,7.90948E1,6.878122E1,9.214182E1,8.065236E1,-1.0400508E1,-1.986738E1,3.4234166E-1,-8.909517E0,-2.9499063E0,-7.078969E1,4.4838734E0,3.8299413E0,3.8480527E0,6.7166084E1,5.153276E0,4.492697E0,4.579745E0,7.869531E1,-5.4268533E-1,-1.2260849E1,-8.633534E0,-2.2090658E1,7.055234E0,-8.3887947E-1,1.0214963E0,-1.0980812E1,-3.6136594E0,-3.137664E0,3.2236164E0,3.6314228E0,3.7866848E0,4.1812277E0,-1.6385286E-1,1.954287E-1,-7.117044E-1,-2.4244638E-1,-2.0039533E-1,-5.728948E-1,-1.1984185E0,-8.163142E-1,1.8052822E-1,3.9107785E-1,-1.24010004E-1,2.1738823E-1,1.7218688E-1,-1.0404515E-1,-3.8631973E-1,-7.253245E-1],"categories":[],"categories_nodes":[],"categories_segments":[],"categories_sizes":[],"default_left":[0,0,0,0,0,0,0,0,0,0,0,0,0,0,0,0,0,0,0,0,0,0,0,0,0,0,0,0,0,0,0,0,0,0,0,0,0,0,0,0,0,0,0,0,0,0,0,0,0,0,0,0,0,0,0,0,0,0,0,0,0,0,0],"id":2,"left_children":[1,3,5,7,9,11,13,15,17,19,21,-1,23,-1,-1,25,27,29,31,33,35,37,39,-1,41,-1,-1,-1,43,-1,-1,-1,45,47,49,51,53,55,57,59,61,-1,-1,-1,-1,-1,-1,-1,-1,-1,-1,-1,-1,-1,-1,-1,-1,-1,-1,-1,-1,-1,-1],"loss_changes":[1.256485E7,1.2945979E7,1.753E4,7.9813E4,1.2037153E5,7.35875E3,1.5905E3,1.9441E4,3.9624E4,4.2916812E4,5.7772062E4,0E0,3.061E3,0E0,0E0,3.891E3,2.0165E3,5.99E3,1.0999E4,1.6735484E4,2.5256719E4,9.061927E3,3.3993953E4,0E0,1.48375E2,0E0,0E0,0E0,2.1165E3,0E0,0E0,0E0,4.2935E3,1.7897695E3,1.1161445E4,2.1734863E3,8.804906E3,4.2200977E2,8.285181E3,2.1565237E3,1.5570703E4,0E0,0E0,0E0,0E0,0E0,0E0,0E0,0E0,0E0,0E0,0E0,0E0,0E0,0E0,0E0,0E0,0E0,0E0,0E0,0E0,0E0,0E0],"parents":[2147483647,0,0,1,1,2,2,3,3,4,4,5,5,6,6,7,7,8,8,9,9,10,10,12,12,15,15,16,16,17,17,18,18,19,19,20,20,21,21,22,22,24,24,28,28,32,32,33,33,34,34,35,35,36,36,37,37,38,38,39,39,40,40],"right_children":[2,4,6,8,10,12,14,16,18,20,22,-1,24,-1,-1,26,28,30,32,34,36,38,40,-1,42,-1,-1,-1,44,-1,-1,-1,46,48,50,52,54,56,58,60,62,-1,-1,-1,-1,-1,-1,-1,-1,-1,-1,-1,-1,-1,-1,-1,-1,-1,-1,-1,-1,-1,-1],"split_conditions":[1E0,1E0,5E0,6E0,6E0,7.1E1,8.6E1,7.1E1,7.1E1,7.3E1,7.1E1,-3.0807438E0,6.99E-1,-2.9298656E0,-3.1288688E0,7.02E-1,7E-1,7.02E-1,7E-1,6.99E-1,7.02E-1,7E-1,7.02E-1,-2.9499063E0,1.627E1,4.4838734E0,3.8299413E0,3.8480527E0,1.264E1,5.153276E0,4.492697E0,4.579745E0,1.016E1,1.003E1,1.703E1,8.5E1,1.415E1,9.6E1,1.317E1,8.7E1,8.6E1,-3.6136594E0,-3.137664E0,3.2236164E0,3.6314228E0,3.7866848E0,4.1812277E0,-1.6385286E-1,1.954287E-1,-7.117044E-1,-2.4244638E-1,-2.0039533E-1,-5.728948E-1,-1.1984185E0,-8.163142E-1,1.8052822E-1,3.9107785E-1,-1.24010004E-1,2.1738823E-1,1.7218688E-1,-1.0404515E-1,-3.8631973E-1,-7.253245E-1],"split_indices":[8,9,3,3,3,2,2,2,2,2,2,0,4,0,0,4,4,4,4,4,4,4,4,0,6,0,0,0,6,0,0,0,6,6,6,2,6,7,6,2,2,0,0,0,0,0,0,0,0,0,0,0,0,0,0,0,0,0,0,0,0,0,0],"split_type":[0,0,0,0,0,0,0,0,0,0,0,0,0,0,0,0,0,0,0,0,0,0,0,0,0,0,0,0,0,0,0,0,0,0,0,0,0,0,0,0,0,0,0,0,0,0,0,0,0,0,0,0,0,0,0,0,0,0,0,0,0,0,0],"sum_hessian":[9.587E3,7.133E3,2.454E3,2.411E3,4.722E3,8.15E2,1.639E3,9.51E2,1.46E3,1.93E3,2.792E3,3.57E2,4.58E2,1.191E3,4.48E2,4.07E2,5.44E2,6.1E2,8.5E2,9.12E2,1.018E3,1.141E3,1.651E3,6.5E1,3.93E2,7.1E1,3.36E2,8.2E1,4.62E2,9.8E1,5.12E2,1.22E2,7.28E2,1.45E2,7.67E2,1.69E2,8.49E2,1.7E2,9.71E2,2.85E2,1.366E3,3.25E2,6.8E1,3.18E2,1.44E2,4.65E2,2.63E2,9E1,5.5E1,6.05E2,1.62E2,6.5E1,1.04E2,6.38E2,2.11E2,3.2E1,1.38E2,7.38E2,2.33E2,1.6E2,1.25E2,7.12E2,6.54E2],"tree_param":{"num_deleted":"0","num_feature":"17","num_nodes":"63","size_leaf_vector":"1"}},{"base_weights":[3.7031496E-1,-2.571177E1,7.667691E1,-9.067558E0,-5.8779915E1,6.963339E1,8.29726E1,-1.49465E1,-3.2366378E0,-6.254099E1,-5.653764E1,6.3447823E1,7.3922356E1,7.420688E1,8.691591E1,-2.0117773E1,-1.0002501E1,-8.975699E0,6.023261E-1,-6.855522E1,-2.9782474E0,-3.0264447E0,-2.7748482E0,3.669579E0,6.14544E1,4.2107577E0,7.1946434E1,4.2376223E0,7.200974E1,4.9468703E0,8.486083E1,-9.667987E0,-2.1916851E1,-2.2607082E-1,-1.1581456E1,1.3723071E0,-1.0862477E1,6.7115707E0,-6.0150856E-1,-3.5221422E0,-3.0064523E0,2.8618064E0,3.2052262E0,3.4516256E0,3.850496E0,3.470256E0,3.95756E0,4.077301E0,4.478685E0,-5.782225E-1,-5.328566E-2,-1.2593282E0,-9.3828213E-1,7.929067E-2,-2.7058917E-1,-6.6836244E-1,-2.120962E-1,-2.6603347E-1,1.5244602E-1,-7.0311874E-1,-3.3430064E-1,4.4686243E-1,2.6831493E-1,-1.3901341E-1,1.3720107E-1],"categories":[],"categories_nodes":[],"categories_segments":[],"categories_sizes":[],"default_left":[0,0,0,0,0,0,0,0,0,0,0,0,0,0,0,0,0,0,0,0,0,0,0,0,0,0,0,0,0,0,0,0,0,0,0,0,0,0,0,0,0,0,0,0,0,0,0,0,0,0,0,0,0,0,0,0,0,0,0,0,0,0,0,0,0],"id":3,"left_children":[1,3,5,7,9,11,13,15,17,19,21,23,25,27,29,31,33,35,37,39,-1,-1,-1,-1,41,-1,43,-1,45,-1,47,49,51,53,55,57,59,61,63,-1,-1,-1,-1,-1,-1,-1,-1,-1,-1,-1,-1,-1,-1,-1,-1,-1,-1,-1,-1,-1,-1,-1,-1,-1,-1],"loss_changes":[1.9016682E7,3.9188105E6,1.0214E5,1.6236672E5,1.6557E4,2.5938E4,3.7778E4,6.0107812E4,5.244253E4,1.16725E4,2.876E3,4.99075E3,7.674E3,3.24175E3,1.32525E4,2.1442562E4,1.8643555E4,1.8642117E4,1.0499548E4,2.8425E2,0E0,0E0,0E0,0E0,8.575E2,0E0,3.13825E3,0E0,8.345E2,0E0,4.489E3,2.7760898E3,9.641094E3,1.5968737E3,1.3572703E4,1.6767821E3,1.0688859E4,6.542334E2,8.703535E3,0E0,0E0,0E0,0E0,0E0,0E0,0E0,0E0,0E0,0E0,0E0,0E0,0E0,0E0,0E0,0E0,0E0,0E0,0E0,0E0,0E0,0E0,0E0,0E0,0E0,0E0],"parents":[2147483647,0,0,1,1,2,2,3,3,4,4,5,5,6,6,7,7,8,8,9,9,10,10,11,11,12,12,13,13,14,14,15,15,16,16,17,17,18,18,19,19,24,24,26,26,28,28,30,30,31,31,32,32,33,33,34,34,35,35,36,36,37,37,38,38],"right_children":[2,4,6,8,10,12,14,16,18,20,22,24,26,28,30,32,34,36,38,40,-1,-1,-1,-1,42,-1,44,-1,46,-1,48,50,52,54,56,58,60,62,64,-1,-1,-1,-1,-1,-1,-1,-1,-1,-1,-1,-1,-1,-1,-1,-1,-1,-1,-1,-1,-1,-1,-1,-1,-1,-1],"split_conditions":[1E0,1E0,5E1,5.2E1,4E1,6E0,5E0,7E0,6E0,5E0,3E0,6.99E-1,6.99E-1,7E-1,7E-1,7E-1,6.99E-1,7E-1,7.02E-1,1.627E1,-2.9782474E0,-3.0264447E0,-2.7748482E0,3.669579E0,5.59E0,4.2107577E0,1.059E1,4.2376223E0,1.33E1,4.9468703E0,7.7E1,1.804E1,3E1,1E1,1.511E1,1.03E2,8E0,2.2E1,8.85E0,-3.5221422E0,-3.0064523E0,2.8618064E0,3.2052262E0,3.4516256E0,3.850496E0,3.470256E0,3.95756E0,4.077301E0,4.478685E0,-5.782225E-1,-5.328566E-2,-1.2593282E0,-9.3828213E-1,7.929067E-2,-2.7058917E-1,-6.6836244E-1,-2.120962E-1,-2.6603347E-1,1.5244602E-1,-7.0311874E-1,-3.3430064E-1,4.4686243E-1,2.6831493E-1,-1.3901341E-1,1.3720107E-1],"split_indices":[10,8,0,0,0,3,3,3,3,3,3,4,4,4,4,4,4,4,4,6,0,0,0,0,6,0,6,0,6,0,0,6,0,16,6,7,6,5,6,0,0,0,0,0,0,0,0,0,0,0,0,0,0,0,0,0,0,0,0,0,0,0,0,0,0],"split_type":[0,0,0,0,0,0,0,0,0,0,0,0,0,0,0,0,0,0,0,0,0,0,0,0,0,0,0,0,0,0,0,0,0,0,0,0,0,0,0,0,0,0,0,0,0,0,0,0,0,0,0,0,0,0,0,0,0,0,0,0,0,0,0,0,0],"sum_hessian":[9.553E3,7.12E3,2.433E3,4.737E3,2.383E3,1.154E3,1.279E3,2.358E3,2.379E3,8.8E2,1.503E3,4.79E2,6.75E2,4.03E2,8.76E2,1.151E3,1.207E3,9.53E2,1.426E3,2.84E2,5.96E2,2.99E2,1.204E3,7.4E1,4.05E2,1.02E2,5.73E2,6.3E1,3.4E2,1.21E2,7.55E2,1.7E2,9.81E2,1.68E2,1.039E3,1.47E2,8.06E2,2.34E2,1.192E3,2.26E2,5.8E1,1.65E2,2.4E2,3.73E2,2E2,2.57E2,8.3E1,4.54E2,3.01E2,1.39E2,3.1E1,4.78E2,5.03E2,1.25E2,4.3E1,8.35E2,2.04E2,2.9E1,1.18E2,4.55E2,3.51E2,8.6E1,1.48E2,7.22E2,4.7E2],"tree_param":{"num_deleted":"0","num_feature":"17","num_nodes":"65","size_leaf_vector":"1"}},{"base_weights":[2.6798353E-1,-2.4274023E1,7.304171E1,-8.307634E0,-5.5707676E1,6.516572E1,7.767347E1,-1.3712005E1,-3.0143714E0,-5.8447094E1,-5.3259075E1,6.848053E1,2.871943E0,8.3721924E1,7.288522E1,-8.188558E0,-1.7536692E1,-6.118841E-1,-9.352081E0,-2.733794E0,-6.14282E1,-2.6073644E0,-2.7921672E0,3.8992176E0,3.3337884E0,4.6402717E0,8.160917E1,4.110689E0,7.129477E1,-1.1484871E1,-4.735342E0,-8.198899E0,-1.936175E1,5.698879E0,-1.8736849E0,4.0267912E-1,-1.1429246E1,-2.6340168E0,-3.1569955E0,3.8137429E0,4.212829E0,3.375445E0,3.743873E0,-4.56417E-2,-6.5726155E-1,-4.409964E-1,-9.563532E-2,-1.5337874E-1,-6.457761E-1,-1.1437668E0,-8.214936E-1,7.4886195E-2,3.4030756E-1,-2.5889573E-1,2.32105E-2,-1.8728498E-1,8.754986E-2,-7.572469E-1,-4.5631814E-1],"categories":[],"categories_nodes":[],"categories_segments":[],"categories_sizes":[],"default_left":[0,0,0,0,0,0,0,0,0,0,0,0,0,0,0,0,0,0,0,0,0,0,0,0,0,0,0,0,0,0,0,0,0,0,0,0,0,0,0,0,0,0,0,0,0,0,0,0,0,0,0,0,0,0,0,0,0,0,0],"id":4,"left_children":[1,3,5,7,9,11,13,15,17,19,21,23,-1,25,27,29,31,33,35,-1,37,-1,-1,-1,-1,-1,39,-1,41,43,45,47,49,51,53,55,57,-1,-1,-1,-1,-1,-1,-1,-1,-1,-1,-1,-1,-1,-1,-1,-1,-1,-1,-1,-1,-1,-1],"loss_changes":[1.7131432E7,3.59953E6,8.3167E4,1.3606797E5,1.3082E4,1.9157E4,3.7845E4,4.9583125E4,3.661246E4,9.3335E3,7.75E2,5.523E3,0E0,5.1515E3,6.809E3,1.0928473E4,2.3526906E4,1.39056E4,1.3399039E4,0E0,5.991E3,0E0,0E0,0E0,0E0,0E0,1.28225E3,0E0,4.94075E3,8.640418E3,5.435416E3,5.501162E3,1.15904375E4,1.3426562E3,1.1242664E4,6.607792E2,4.5228125E3,0E0,0E0,0E0,0E0,0E0,0E0,0E0,0E0,0E0,0E0,0E0,0E0,0E0,0E0,0E0,0E0,0E0,0E0,0E0,0E0,0E0,0E0],"parents":[2147483647,0,0,1,1,2,2,3,3,4,4,5,5,6,6,7,7,8,8,9,9,10,10,11,11,13,13,14,14,15,15,16,16,17,17,18,18,20,20,26,26,28,28,29,29,30,30,31,31,32,32,33,33,34,34,35,35,36,36],"right_children":[2,4,6,8,10,12,14,16,18,20,22,24,-1,26,28,30,32,34,36,-1,38,-1,-1,-1,-1,-1,40,-1,42,44,46,48,50,52,54,56,58,-1,-1,-1,-1,-1,-1,-1,-1,-1,-1,-1,-1,-1,-1,-1,-1,-1,-1,-1,-1,-1,-1],"split_conditions":[1E0,1E0,4.2E1,5.2E1,5E1,8.5E1,7.1E1,7.1E1,8.6E1,7.1E1,8.6E1,7.02E-1,2.871943E0,7E-1,7E-1,1.99E2,7E-1,7.02E-1,7.05E-1,-2.733794E0,7E-1,-2.6073644E0,-2.7921672E0,3.8992176E0,3.3337884E0,4.6402717E0,6.2E1,4.110689E0,2E2,6.99E-1,2.8E1,8.6E1,3E1,6.1E1,7E1,6.2E1,6.7E1,-2.6340168E0,-3.1569955E0,3.8137429E0,4.212829E0,3.375445E0,3.743873E0,-4.56417E-2,-6.5726155E-1,-4.409964E-1,-9.563532E-2,-1.5337874E-1,-6.457761E-1,-1.1437668E0,-8.214936E-1,7.4886195E-2,3.4030756E-1,-2.5889573E-1,2.32105E-2,-1.8728498E-1,8.754986E-2,-7.572469E-1,-4.5631814E-1],"split_indices":[10,8,0,0,0,2,2,2,2,2,2,4,0,4,4,7,4,4,4,0,4,0,0,0,0,0,0,0,7,4,0,2,0,0,0,0,0,0,0,0,0,0,0,0,0,0,0,0,0,0,0,0,0,0,0,0,0,0,0],"split_type":[0,0,0,0,0,0,0,0,0,0,0,0,0,0,0,0,0,0,0,0,0,0,0,0,0,0,0,0,0,0,0,0,0,0,0,0,0,0,0,0,0,0,0,0,0,0,0,0,0,0,0,0,0,0,0,0,0,0,0],"sum_hessian":[9.59E3,7.172E3,2.418E3,4.757E3,2.415E3,9.01E2,1.517E3,2.353E3,2.404E3,1.129E3,1.286E3,6.25E2,2.76E2,6.63E2,8.54E2,9.64E2,1.389E3,1.744E3,6.6E2,5.07E2,6.22E2,9.14E2,3.72E2,9.3E1,5.32E2,1.17E2,5.46E2,1.17E2,7.37E2,4.92E2,4.72E2,2.28E2,1.161E3,2.9E2,1.454E3,1.16E2,5.44E2,1.07E2,5.15E2,1.91E2,3.55E2,3.68E2,3.69E2,6.7E1,4.25E2,1.92E2,2.8E2,1.1E2,1.18E2,5.25E2,6.36E2,6.1E1,2.29E2,6.02E2,8.52E2,2.8E1,8.8E1,2.06E2,3.38E2],"tree_param":{"num_deleted":"0","num_feature":"17","num_nodes":"59","size_leaf_vector":"1"}},{"base_weights":[6.970397E-2,-2.3088718E1,6.953532E1,-7.9570723E0,-5.2985115E1,6.442401E1,7.6686905E1,-1.3060132E1,-3.1978414E0,-5.6619915E1,-5.1012848E1,3.692688E0,6.2730103E1,4.293529E0,7.489876E1,-4.377408E0,-1.4715303E1,4.0692544E0,-4.6041255E0,-5.9018917E1,-2.635706E0,-2.6252236E0,-2.4889064E0,6.0161842E1,6.71488E1,3.9336526E0,7.215617E1,-6.1720805E0,1.0333064E0,-1.8121872E1,-1.1803098E1,4.0566155E-1,5.189359E0,-7.756251E0,-2.1342576E0,-2.5108852E0,-6.0367825E1,3.2343729E0,5.780362E1,2.9282799E0,6.911834E1,3.4544258E0,3.7951984E0,-4.5553755E-2,-3.9025858E-1,2.7541712E-1,-3.919981E-2,-7.4356645E-1,-1.010242E0,-6.854121E-1,-2.746162E-1,-1.0786358E-1,2.644636E-1,1.3630638E-1,3.2465288E-1,-5.440151E-1,-2.5836957E-1,-1.9031633E-1,1.5729986E-1,-2.8910682E0,-3.1921976E0,2.732254E0,3.0276477E0,3.045019E0,3.5494182E0],"categories":[],"categories_nodes":[],"categories_segments":[],"categories_sizes":[],"default_left":[0,0,0,0,0,0,0,0,0,0,0,0,0,0,0,0,0,0,0,0,0,0,0,0,0,0,0,0,0,0,0,0,0,0,0,0,0,0,0,0,0,0,0,0,0,0,0,0,0,0,0,0,0,0,0,0,0,0,0,0,0,0,0,0,0],"id":5,"left_children":[1,3,5,7,9,11,13,15,17,19,21,-1,23,-1,25,27,29,31,33,35,-1,-1,-1,37,39,-1,41,43,45,47,49,51,53,55,57,-1,59,-1,61,-1,63,-1,-1,-1,-1,-1,-1,-1,-1,-1,-1,-1,-1,-1,-1,-1,-1,-1,-1,-1,-1,-1,-1,-1,-1],"loss_changes":[1.5409873E7,3.2494825E6,8.2593E4,1.1582816E5,1.44065E4,1.77635E4,9.8595E3,3.3016656E4,2.5261205E4,4.7485E3,2.77E2,0E0,9.5205E3,0E0,2.993E3,3.5997622E3,1.8959656E4,1.6428823E3,1.6098102E4,3.036E3,0E0,0E0,0E0,4.4235E3,3.225375E3,0E0,4.6675E2,2.3805098E3,7.61113E2,5.71525E3,1.248675E4,1.2007784E3,9.67249E2,7.293922E3,1.0271281E4,0E0,1.8225E2,0E0,1.1345E3,0E0,9.655E2,0E0,0E0,0E0,0E0,0E0,0E0,0E0,0E0,0E0,0E0,0E0,0E0,0E0,0E0,0E0,0E0,0E0,0E0,0E0,0E0,0E0,0E0,0E0,0E0],"parents":[2147483647,0,0,1,1,2,2,3,3,4,4,5,5,6,6,7,7,8,8,9,9,10,10,12,12,14,14,15,15,16,16,17,17,18,18,19,19,23,23,24,24,26,26,27,27,28,28,29,29,30,30,31,31,32,32,33,33,34,34,36,36,38,38,40,40],"right_children":[2,4,6,8,10,12,14,16,18,20,22,-1,24,-1,26,28,30,32,34,36,-1,-1,-1,38,40,-1,42,44,46,48,50,52,54,56,58,-1,60,-1,62,-1,64,-1,-1,-1,-1,-1,-1,-1,-1,-1,-1,-1,-1,-1,-1,-1,-1,-1,-1,-1,-1,-1,-1,-1,-1],"split_conditions":[1E0,1E0,6E1,5.1E1,3.9E1,7E-1,6.99E-1,7E-1,7E-1,9.7E0,6.5E1,3.692688E0,1.003E1,4.293529E0,2.2E1,1.464E1,3E1,1.12E2,7E1,7E-1,-2.635706E0,-2.6252236E0,-2.4889064E0,1.9E1,2E1,3.9336526E0,8.85E0,1.3E1,1.4E1,2.1E1,1.48E1,1.15E1,6.6E1,1.77E2,1.33E1,-2.5108852E0,3.2E1,3.2343729E0,1.9E2,2.9282799E0,1.01E2,3.4544258E0,3.7951984E0,-4.5553755E-2,-3.9025858E-1,2.7541712E-1,-3.919981E-2,-7.4356645E-1,-1.010242E0,-6.854121E-1,-2.746162E-1,-1.0786358E-1,2.644636E-1,1.3630638E-1,3.2465288E-1,-5.440151E-1,-2.5836957E-1,-1.9031633E-1,1.5729986E-1,-2.8910682E0,-3.1921976E0,2.732254E0,3.0276477E0,3.045019E0,3.5494182E0],"split_indices":[10,8,0,0,0,4,4,4,4,6,0,0,6,0,5,6,0,7,0,4,0,0,0,5,0,0,6,5,5,5,6,6,0,7,6,0,5,0,7,0,7,0,0,0,0,0,0,0,0,0,0,0,0,0,0,0,0,0,0,0,0,0,0,0,0],"split_type":[0,0,0,0,0,0,0,0,0,0,0,0,0,0,0,0,0,0,0,0,0,0,0,0,0,0,0,0,0,0,0,0,0,0,0,0,0,0,0,0,0,0,0,0,0,0,0,0,0,0,0,0,0,0,0,0,0,0,0,0,0,0,0,0,0],"sum_hessian":[9.577E3,7.183E3,2.394E3,4.77E3,2.413E3,1.402E3,9.92E2,2.301E3,2.469E3,8.39E2,1.574E3,2.07E2,1.195E3,1.54E2,8.38E2,3.69E2,1.932E3,4E2,2.069E3,5.11E2,3.28E2,6.94E2,8.8E2,7.65E2,4.3E2,3.41E2,4.97E2,2.77E2,9.2E1,8.88E2,1.044E3,9.4E1,3.06E2,9.08E2,1.161E3,7.3E1,4.38E2,2.53E2,5.12E2,8.6E1,3.44E2,2.84E2,2.13E2,6.6E1,2.11E2,2.6E1,6.6E1,3.5E2,5.38E2,8.01E2,2.43E2,6.2E1,3.2E1,1.07E2,1.99E2,4.1E2,4.98E2,8.82E2,2.79E2,2.63E2,1.75E2,2.48E2,2.64E2,7E1,2.74E2],"tree_param":{"num_deleted":"0","num_feature":"17","num_nodes":"65","size_leaf_vector":"1"}},{"base_weights":[-9.42443E-3,1.7057888E1,-5.0396328E1,6.621626E1,-7.669072E0,-5.3542583E1,-4.822774E1,6.030316E1,7.142121E1,-1.2497331E1,-2.6456017E0,-5.7330673E1,-4.9850803E1,-5.209755E1,-2.3619359E0,5.60229E1,6.667005E1,6.387554E1,7.538106E1,-1.7460245E1,-7.8707676E0,-7.058349E0,1.4180964E0,-2.633435E0,-6.116735E1,-2.3955684E0,-2.7235277E0,-2.4215095E0,-2.745103E0,6.1638042E1,5.20062E1,3.4915721E0,2.9519362E0,6.69942E1,2.7397192E0,7.833886E1,3.337242E0,-1.2107231E1,-2.1085566E1,-4.9199305E0,-1.5017718E1,-3.1764188E0,-1.1898361E1,3.4247954E0,-3.379346E0,-2.5029984E0,-3.1496027E0,3.532E0,2.950404E0,2.69619E0,2.374975E0,3.138341E0,3.573857E0,3.6550674E0,4.0559545E0,-1.5484306E-1,-6.905605E-1,-6.4757293E-1,-1.12762E0,-3.4015718E-1,6.0386803E-2,-2.7395755E-1,-8.28485E-1,-3.008255E-1,7.878225E-3,-7.609283E-2,-6.9378424E-1,9.510078E-2,2.9084757E-1,1.2970673E-2,-3.282566E-1],"categories":[],"categories_nodes":[],"categories_segments":[],"categories_sizes":[],"default_left":[0,0,0,0,0,0,0,0,0,0,0,0,0,0,0,0,0,0,0,0,0,0,0,0,0,0,0,0,0,0,0,0,0,0,0,0,0,0,0,0,0,0,0,0,0,0,0,0,0,0,0,0,0,0,0,0,0,0,0,0,0,0,0,0,0,0,0,0,0,0,0],"id":6,"left_children":[1,3,5,7,9,11,13,15,17,19,21,23,25,27,-1,29,31,33,35,37,39,41,43,-1,45,-1,-1,-1,-1,47,49,-1,-1,51,-1,53,-1,55,57,59,61,63,65,67,69,-1,-1,-1,-1,-1,-1,-1,-1,-1,-1,-1,-1,-1,-1,-1,-1,-1,-1,-1,-1,-1,-1,-1,-1,-1,-1],"loss_changes":[8.2557055E6,8.717131E6,1.39805E4,6.9546E4,1.1570844E5,1.086425E4,3.07125E3,2.70475E4,3.31485E4,5.572475E4,4.197163E4,5.31675E3,1.904625E3,2.620625E2,0E0,1.2165E4,6.696625E3,8.891375E3,1.59075E4,2.2505062E4,2.6517969E4,2.1041492E4,1.1746919E4,0E0,2.0238125E3,0E0,0E0,0E0,0E0,2.424E3,9.19875E2,0E0,0E0,1.67825E3,0E0,2.95175E3,0E0,7.263789E3,8.0324375E3,1.032527E4,5.354758E3,5.9100767E3,1.02156875E4,3.1209102E3,4.1755654E3,0E0,0E0,0E0,0E0,0E0,0E0,0E0,0E0,0E0,0E0,0E0,0E0,0E0,0E0,0E0,0E0,0E0,0E0,0E0,0E0,0E0,0E0,0E0,0E0,0E0,0E0],"parents":[2147483647,0,0,1,1,2,2,3,3,4,4,5,5,6,6,7,7,8,8,9,9,10,10,11,11,12,12,13,13,15,15,16,16,17,17,18,18,19,19,20,20,21,21,22,22,24,24,29,29,30,30,33,33,35,35,37,37,38,38,39,39,40,40,41,41,42,42,43,43,44,44],"right_children":[2,4,6,8,10,12,14,16,18,20,22,24,26,28,-1,30,32,34,36,38,40,42,44,-1,46,-1,-1,-1,-1,48,50,-1,-1,52,-1,54,-1,56,58,60,62,64,66,68,70,-1,-1,-1,-1,-1,-1,-1,-1,-1,-1,-1,-1,-1,-1,-1,-1,-1,-1,-1,-1,-1,-1,-1,-1,-1,-1],"split_conditions":[1E0,1E0,6E0,7E0,5.3E1,5.4E1,2.6E1,6E1,4.2E1,7E0,7E0,7.2E1,8.6E1,7.2E1,-2.3619359E0,7.1E1,8.4E1,8.6E1,8.6E1,7.1E1,8.6E1,7.7E1,8.6E1,-2.633435E0,6.99E-1,-2.3955684E0,-2.7235277E0,-2.4215095E0,-2.745103E0,6.99E-1,9.1E1,3.4915721E0,2.9519362E0,7.72E0,2.7397192E0,6.1E1,3.337242E0,6.99E-1,7.02E-1,1.363E1,7E-1,7.5E1,6.99E-1,8.54E0,2.7E1,-2.5029984E0,-3.1496027E0,3.532E0,2.950404E0,2.69619E0,2.374975E0,3.138341E0,3.573857E0,3.6550674E0,4.0559545E0,-1.5484306E-1,-6.905605E-1,-6.4757293E-1,-1.12762E0,-3.4015718E-1,6.0386803E-2,-2.7395755E-1,-8.28485E-1,-3.008255E-1,7.878225E-3,-7.609283E-2,-6.9378424E-1,9.510078E-2,2.9084757E-1,1.2970673E-2,-3.282566E-1],"split_indices":[8,9,3,3,0,0,0,0,0,3,3,2,2,2,0,2,2,2,2,2,2,2,2,0,4,0,0,0,0,4,2,0,0,6,0,0,0,4,4,6,4,0,4,6,5,0,0,0,0,0,0,0,0,0,0,0,0,0,0,0,0,0,0,0,0,0,0,0,0,0,0],"split_type":[0,0,0,0,0,0,0,0,0,0,0,0,0,0,0,0,0,0,0,0,0,0,0,0,0,0,0,0,0,0,0,0,0,0,0,0,0,0,0,0,0,0,0,0,0,0,0,0,0,0,0,0,0,0,0,0,0,0,0,0,0,0,0,0,0,0,0,0,0,0,0],"sum_hessian":[9.598E3,7.17E3,2.428E3,2.399E3,4.771E3,9.81E2,1.447E3,1.129E3,1.27E3,2.432E3,2.339E3,4.77E2,5.04E2,2.84E2,1.163E3,6.81E2,4.48E2,4.43E2,8.27E2,1.172E3,1.26E3,1.121E3,1.218E3,2.22E2,2.55E2,3.63E2,1.41E2,1.31E2,1.53E2,2.78E2,4.03E2,3.11E2,1.37E2,3.25E2,1.18E2,6.1E2,2.17E2,4.75E2,6.97E2,8.93E2,3.67E2,6.23E2,4.98E2,8.59E2,3.59E2,4E1,2.15E2,5.7E1,2.21E2,2.75E2,1.28E2,1.75E2,1.5E2,2.21E2,3.89E2,7.6E1,3.99E2,1.08E2,5.89E2,6.83E2,2.1E2,5.2E1,3.15E2,3.36E2,2.87E2,8E1,4.18E2,5.26E2,3.33E2,1.68E2,1.91E2],"tree_param":{"num_deleted":"0","num_feature":"17","num_nodes":"71","size_leaf_vector":"1"}},{"base_weights":[-1.4738645E-1,-2.111867E1,6.2409115E1,-7.2975802E0,-4.788128E1,5.6954987E1,6.764695E1,-1.1398947E1,-2.1257403E0,-5.105866E1,-4.6070354E1,6.2533066E1,5.310841E1,7.060387E1,6.0167435E1,-8.6427555E0,-1.7984146E1,2.068458E0,-5.1593494E0,-2.3638828E0,-5.3997044E1,-2.2458687E0,-4.9121906E1,2.9238057E0,3.3531773E0,5.130835E1,2.8959677E0,6.837678E1,3.837918E0,2.9326303E0,3.4183266E0,-1.2846276E1,-6.600969E0,-2.058374E1,-1.4592047E1,-3.178389E-1,4.817514E0,-7.4195194E0,-1.9731044E0,-2.4614618E0,-5.579742E1,-2.5572822E0,-2.289666E0,2.4214914E0,2.6979718E0,3.1121058E0,6.988454E1,-7.387695E-1,-3.4018704E-1,-5.5485123E-1,-2.3445241E-1,-1.1807299E0,-9.359418E-1,-9.780965E-1,-6.0047716E-1,-1.0900066E-1,1.7158096E-1,1.03399E-1,3.1280038E-1,-1.5144776E-1,-4.9042192E-1,-3.6390296E-1,-3.32291E-2,-2.9137151E0,-2.589114E0,3.284605E0,3.6408951E0],"categories":[],"categories_nodes":[],"categories_segments":[],"categories_sizes":[],"default_left":[0,0,0,0,0,0,0,0,0,0,0,0,0,0,0,0,0,0,0,0,0,0,0,0,0,0,0,0,0,0,0,0,0,0,0,0,0,0,0,0,0,0,0,0,0,0,0,0,0,0,0,0,0,0,0,0,0,0,0,0,0,0,0,0,0,0,0],"id":7,"left_children":[1,3,5,7,9,11,13,15,17,19,21,23,25,27,29,31,33,35,37,-1,39,-1,41,-1,-1,43,-1,45,-1,-1,-1,47,49,51,53,55,57,59,61,-1,63,-1,-1,-1,-1,-1,65,-1,-1,-1,-1,-1,-1,-1,-1,-1,-1,-1,-1,-1,-1,-1,-1,-1,-1,-1,-1],"loss_changes":[1.2571844E7,2.654334E6,6.4869E4,1.0039017E5,1.1701E4,2.209325E4,2.2765E4,4.7758062E4,2.6666838E4,7.1915E3,3.2975E3,4.8515E3,3.148625E3,6.6615E3,3.6175E2,1.59028125E4,6.5566094E3,5.774838E3,8.741391E3,0E0,1.422875E3,0E0,4.706875E2,0E0,0E0,1.375375E3,0E0,1.63075E3,0E0,0E0,0E0,6.9846016E3,1.0743086E4,2.0294375E3,4.1385547E3,3.3029282E3,1.6039014E3,7.4264766E3,3.5068442E3,0E0,4.12375E2,0E0,0E0,0E0,0E0,0E0,1.49925E3,0E0,0E0,0E0,0E0,0E0,0E0,0E0,0E0,0E0,0E0,0E0,0E0,0E0,0E0,0E0,0E0,0E0,0E0,0E0,0E0],"parents":[2147483647,0,0,1,1,2,2,3,3,4,4,5,5,6,6,7,7,8,8,9,9,10,10,11,11,12,12,13,13,14,14,15,15,16,16,17,17,18,18,20,20,22,22,25,25,27,27,31,31,32,32,33,33,34,34,35,35,36,36,37,37,38,38,40,40,46,46],"right_children":[2,4,6,8,10,12,14,16,18,20,22,24,26,28,30,32,34,36,38,-1,40,-1,42,-1,-1,44,-1,46,-1,-1,-1,48,50,52,54,56,58,60,62,-1,64,-1,-1,-1,-1,-1,66,-1,-1,-1,-1,-1,-1,-1,-1,-1,-1,-1,-1,-1,-1,-1,-1,-1,-1,-1,-1],"split_conditions":[1E0,1E0,5.1E1,5.7E1,4E1,7.1E1,8.6E1,8.6E1,7.1E1,7.1E1,8.6E1,7.9E0,1.303E1,1.33E1,2.191E1,2.6E1,3.7E1,1.99E2,8.21E0,-2.3638828E0,1.6E1,-2.2458687E0,7.4E1,2.9238057E0,3.3531773E0,1.82E2,2.8959677E0,1.01E2,3.837918E0,2.9326303E0,3.4183266E0,1.363E1,1.27E2,1.45E2,1.27E2,8.2E1,7.1E1,2E1,9.4E1,-2.4614618E0,8.95E0,-2.5572822E0,-2.289666E0,2.4214914E0,2.6979718E0,3.1121058E0,6.9E1,-7.387695E-1,-3.4018704E-1,-5.5485123E-1,-2.3445241E-1,-1.1807299E0,-9.359418E-1,-9.780965E-1,-6.0047716E-1,-1.0900066E-1,1.7158096E-1,1.03399E-1,3.1280038E-1,-1.5144776E-1,-4.9042192E-1,-3.6390296E-1,-3.32291E-2,-2.9137151E0,-2.589114E0,3.284605E0,3.6408951E0],"split_indices":[10,8,0,0,0,2,2,2,2,2,2,6,6,6,6,0,0,7,6,0,5,0,0,0,0,7,0,7,0,0,0,6,7,7,7,0,0,5,7,0,6,0,0,0,0,0,0,0,0,0,0,0,0,0,0,0,0,0,0,0,0,0,0,0,0,0,0],"split_type":[0,0,0,0,0,0,0,0,0,0,0,0,0,0,0,0,0,0,0,0,0,0,0,0,0,0,0,0,0,0,0,0,0,0,0,0,0,0,0,0,0,0,0,0,0,0,0,0,0,0,0,0,0,0,0,0,0,0,0,0,0,0,0,0,0,0,0],"sum_hessian":[9.581E3,7.176E3,2.405E3,4.733E3,2.443E3,1.184E3,1.221E3,2.639E3,2.094E3,8.77E2,1.566E3,4.77E2,7.07E2,8.69E2,3.52E2,1.862E3,7.77E2,8.79E2,1.215E3,3.91E2,4.86E2,1.148E3,4.18E2,2.59E2,2.18E2,5.23E2,1.84E2,6.47E2,2.22E2,3.04E2,4.8E1,6.07E2,1.255E3,4.37E2,3.4E2,4.71E2,4.08E2,7.1E2,5.05E2,1.41E2,3.45E2,2.51E2,1.67E2,2.6E2,2.63E2,1.36E2,5.11E2,4.59E2,1.48E2,3.73E2,8.82E2,1.62E2,2.75E2,1.14E2,2.26E2,3.15E2,1.56E2,1.41E2,2.67E2,2.51E2,4.59E2,9.9E1,4.06E2,2.05E2,1.4E2,2.2E2,2.91E2],"tree_param":{"num_deleted":"0","num_feature":"17","num_nodes":"67","size_leaf_vector":"1"}},{"base_weights":[5.8363467E-2,-1.9804237E1,5.9637894E1,-4.5381935E1,-6.8745694E0,5.422315E1,6.461252E1,-4.8493416E1,-4.3781322E1,-1.1357749E1,-2.297371E0,5.7065224E1,4.777809E1,6.961777E1,6.0513226E1,-2.2579777E0,-5.108627E1,-2.1357994E0,-4.6482765E1,-6.496846E0,-1.465356E1,1.6468484E0,-5.2480755E0,3.310265E0,5.5547356E1,5.5499763E1,4.58818E1,3.9443195E0,6.752277E1,3.4594305E0,5.9048176E1,-2.1501625E0,-5.2494205E1,-4.8032692E1,-2.1259956E0,-8.717452E0,-2.1430452E0,-6.028106E0,-1.6251081E1,-2.844072E0,2.8620203E0,2.2701726E0,-6.799445E0,5.3010654E1,5.9646503E1,1.9389032E0,2.9068615E0,2.1167223E0,4.8398014E1,3.0425622E0,3.4667282E0,5.5615242E1,3.1136253E0,-2.7872436E0,-2.4700787E0,-2.0583727E0,-2.4566467E0,-5.691683E-2,-4.9552527E-1,-2.7694932E-1,4.761834E-2,-1.1262988E-1,-4.9940825E-1,-9.0986603E-1,-6.0920864E-1,3.1274018E-1,-2.1445553E-1,3.4570315E-1,9.826492E-2,-1.7303187E-1,1.9120544E-1,-4.5999166E-1,-1.7456521E-1,2.4828997E0,2.780632E0,3.1264694E0,2.7429287E0,2.631683E0,2.167723E0,2.572917E0,2.9499285E0],"categories":[],"categories_nodes":[],"categories_segments":[],"categories_sizes":[],"default_left":[0,0,0,0,0,0,0,0,0,0,0,0,0,0,0,0,0,0,0,0,0,0,0,0,0,0,0,0,0,0,0,0,0,0,0,0,0,0,0,0,0,0,0,0,0,0,0,0,0,0,0,0,0,0,0,0,0,0,0,0,0,0,0,0,0,0,0,0,0,0,0,0,0,0,0,0,0,0,0,0,0],"id":8,"left_children":[1,3,5,7,9,11,13,15,17,19,21,23,25,27,29,-1,31,-1,33,35,37,39,41,-1,43,45,47,-1,49,-1,51,-1,53,55,-1,57,59,61,63,65,67,69,71,73,75,-1,-1,-1,77,-1,-1,79,-1,-1,-1,-1,-1,-1,-1,-1,-1,-1,-1,-1,-1,-1,-1,-1,-1,-1,-1,-1,-1,-1,-1,-1,-1,-1,-1,-1,-1],"loss_changes":[1.1335832E7,2.3755118E6,6.0997E4,9.8805E3,9.791645E4,1.8383E4,2.1278E4,4.68525E3,2.619E3,3.8528375E4,2.751013E4,7.33975E3,2.7000625E3,5.39675E3,4.684E3,0E0,2.8315E3,0E0,6.63375E2,9.416273E3,1.9686969E4,5.530868E3,1.5785059E4,0E0,3.981E3,6.466406E2,5.6625E2,0E0,1.303875E3,0E0,3.144E3,0E0,1.025625E3,3.098125E2,0E0,5.8289336E3,3.4851516E3,3.355254E3,9.3605E3,2.866648E3,2.8814678E3,2.0793027E3,8.86827E3,1.013875E3,7.78125E1,0E0,0E0,0E0,1.2333438E3,0E0,0E0,1.1581875E3,0E0,0E0,0E0,0E0,0E0,0E0,0E0,0E0,0E0,0E0,0E0,0E0,0E0,0E0,0E0,0E0,0E0,0E0,0E0,0E0,0E0,0E0,0E0,0E0,0E0,0E0,0E0,0E0,0E0],"parents":[2147483647,0,0,1,1,2,2,3,3,4,4,5,5,6,6,7,7,8,8,9,9,10,10,11,11,12,12,13,13,14,14,16,16,18,18,19,19,20,20,21,21,22,22,24,24,25,25,26,26,28,28,30,30,32,32,33,33,35,35,36,36,37,37,38,38,39,39,40,40,41,41,42,42,43,43,44,44,48,48,51,51],"right_children":[2,4,6,8,10,12,14,16,18,20,22,24,26,28,30,-1,32,-1,34,36,38,40,42,-1,44,46,48,-1,50,-1,52,-1,54,56,-1,58,60,62,64,66,68,70,72,74,76,-1,-1,-1,78,-1,-1,80,-1,-1,-1,-1,-1,-1,-1,-1,-1,-1,-1,-1,-1,-1,-1,-1,-1,-1,-1,-1,-1,-1,-1,-1,-1,-1,-1,-1,-1],"split_conditions":[1E0,1E0,5.1E1,3.8E1,5.3E1,8.5E1,7.1E1,7.1E1,8.6E1,7.1E1,7.1E1,6.93E-1,7.05E-1,7E-1,7E-1,-2.2579777E0,7E-1,-2.1357994E0,1.363E1,1.016E1,7E-1,9.7E1,7.02E-1,3.310265E0,1.003E1,9.7E1,6E0,3.9443195E0,9.7E1,3.4594305E0,1.92E2,-2.1501625E0,6.26E0,7.11E-1,-2.1259956E0,6.99E-1,1.98E2,8.6E1,3.9E1,7.1E-1,7.14E-1,1.12E2,8.21E0,2.8E1,7.1E1,1.9389032E0,2.9068615E0,2.1167223E0,1E1,3.0425622E0,3.4667282E0,7.72E0,3.1136253E0,-2.7872436E0,-2.4700787E0,-2.0583727E0,-2.4566467E0,-5.691683E-2,-4.9552527E-1,-2.7694932E-1,4.761834E-2,-1.1262988E-1,-4.9940825E-1,-9.0986603E-1,-6.0920864E-1,3.1274018E-1,-2.1445553E-1,3.4570315E-1,9.826492E-2,-1.7303187E-1,1.9120544E-1,-4.5999166E-1,-1.7456521E-1,2.4828997E0,2.780632E0,3.1264694E0,2.7429287E0,2.631683E0,2.167723E0,2.572917E0,2.9499285E0],"split_indices":[10,9,0,0,0,2,2,2,2,2,2,4,4,4,4,0,4,0,6,6,4,7,4,0,6,7,16,0,7,0,7,0,6,4,0,4,7,2,0,4,4,7,6,0,2,0,0,0,16,0,0,6,0,0,0,0,0,0,0,0,0,0,0,0,0,0,0,0,0,0,0,0,0,0,0,0,0,0,0,0,0],"split_type":[0,0,0,0,0,0,0,0,0,0,0,0,0,0,0,0,0,0,0,0,0,0,0,0,0,0,0,0,0,0,0,0,0,0,0,0,0,0,0,0,0,0,0,0,0,0,0,0,0,0,0,0,0,0,0,0,0,0,0,0,0,0,0,0,0,0,0,0,0,0,0,0,0,0,0,0,0,0,0,0,0],"sum_hessian":[9.577E3,7.183E3,2.394E3,2.411E3,4.772E3,1.152E3,1.242E3,8.09E2,1.602E3,2.41E3,2.362E3,7.94E2,3.58E2,5.52E2,6.9E2,3.62E2,4.47E2,1.161E3,4.41E2,9.75E2,1.435E3,1.011E3,1.351E3,1.07E2,6.87E2,6.5E1,2.93E2,9.5E1,4.57E2,9.3E1,5.97E2,7.1E1,3.76E2,3.09E2,1.32E2,6.45E2,3.3E2,2.25E2,1.21E3,2.15E2,7.96E2,2.31E2,1.12E3,4.33E2,2.54E2,1.1E1,5.4E1,1.29E2,1.64E2,1.05E2,3.52E2,2.98E2,2.99E2,1.75E2,2.01E2,4.8E1,2.61E2,8.8E1,5.57E2,1.57E2,1.73E2,1.16E2,1.09E2,8.16E2,3.94E2,2.9E1,1.86E2,1.43E2,6.53E2,4.9E1,1.82E2,6.48E2,4.72E2,1.98E2,2.35E2,1.51E2,1.03E2,8.4E1,8E1,1.41E2,1.57E2],"tree_param":{"num_deleted":"0","num_feature":"17","num_nodes":"81","size_leaf_vector":"1"}},{"base_weights":[1.9695416E-2,-1.9032545E1,5.6277023E1,-6.5422335E0,-4.3270023E1,4.903182E1,5.990284E1,-1.1239954E1,-2.2523913E0,-4.6893425E1,-4.1427265E1,5.3053623E1,4.5940876E1,6.299497E1,5.2856472E1,-6.6335053E0,-1.4536141E1,-8.6166665E-2,-7.5356812E0,-4.2870647E1,-4.9831245E1,-2.0227153E0,-4.377768E1,3.0468166E0,5.1172092E1,2.580243E0,4.446334E1,3.6025083E0,6.1366093E1,3.0556927E0,5.1459694E1,1.3514049E0,-8.150054E0,-6.6379437E0,-1.6101053E1,5.3972645E0,-1.1170906E0,1.968926E-1,-9.062171E0,-2.2451313E0,-2.0075507E0,-2.068963E0,-5.1122128E1,-4.5420555E1,-2.0211952E0,2.3819873E0,2.688815E0,2.1202102E0,2.36203E0,5.6956253E1,6.446303E1,2.3725429E0,2.6979823E0,-8.059652E-2,1.3068335E-1,-6.06297E-1,-2.5012755E-1,-4.30559E-1,5.055324E-2,-9.7415227E-1,-6.812605E-1,3.1802654E-1,1.2690721E-1,4.399521E-2,-1.9741522E-1,-1.8845914E-1,9.3775116E-2,-5.255838E-1,-4.995841E-2,-2.6139371E0,-2.2051873E0,-1.9473313E0,-2.3285623E0,2.6639483E0,2.9745066E0,3.4202182E0,2.8989205E0],"categories":[],"categories_nodes":[],"categories_segments":[],"categories_sizes":[],"default_left":[0,0,0,0,0,0,0,0,0,0,0,0,0,0,0,0,0,0,0,0,0,0,0,0,0,0,0,0,0,0,0,0,0,0,0,0,0,0,0,0,0,0,0,0,0,0,0,0,0,0,0,0,0,0,0,0,0,0,0,0,0,0,0,0,0,0,0,0,0,0,0,0,0,0,0,0,0],"id":9,"left_children":[1,3,5,7,9,11,13,15,17,19,21,23,25,27,29,31,33,35,37,39,41,-1,43,-1,45,-1,47,-1,49,-1,51,53,55,57,59,61,63,65,67,-1,-1,-1,69,71,-1,-1,-1,-1,-1,73,75,-1,-1,-1,-1,-1,-1,-1,-1,-1,-1,-1,-1,-1,-1,-1,-1,-1,-1,-1,-1,-1,-1,-1,-1,-1,-1],"loss_changes":[1.0320636E7,2.1772752E6,6.1045E4,9.565728E4,1.43805E4,7.7215E3,3.1934E4,3.4307812E4,2.8416008E4,7.509875E3,1.94825E3,2.04675E3,1.6291875E3,1.2085E4,2.610625E3,1.1479395E4,1.6206031E4,9.966188E3,8.5249375E3,1.33875E2,2.959625E3,0E0,7.174375E2,0E0,7.73125E1,0E0,1.61E2,0E0,9.37225E3,0E0,1.778875E3,5.728699E2,9.898859E3,3.3299941E3,8.950219E3,7.513594E2,8.394197E3,8.0577893E2,7.035824E3,0E0,0E0,0E0,9.316875E2,4.42375E2,0E0,0E0,0E0,0E0,0E0,5.74125E2,1.01805E4,0E0,0E0,0E0,0E0,0E0,0E0,0E0,0E0,0E0,0E0,0E0,0E0,0E0,0E0,0E0,0E0,0E0,0E0,0E0,0E0,0E0,0E0,0E0,0E0,0E0,0E0],"parents":[2147483647,0,0,1,1,2,2,3,3,4,4,5,5,6,6,7,7,8,8,9,9,10,10,11,11,12,12,13,13,14,14,15,15,16,16,17,17,18,18,19,19,20,20,22,22,24,24,26,26,28,28,30,30,31,31,32,32,33,33,34,34,35,35,36,36,37,37,38,38,42,42,43,43,49,49,50,50],"right_children":[2,4,6,8,10,12,14,16,18,20,22,24,26,28,30,32,34,36,38,40,42,-1,44,-1,46,-1,48,-1,50,-1,52,54,56,58,60,62,64,66,68,-1,-1,-1,70,72,-1,-1,-1,-1,-1,74,76,-1,-1,-1,-1,-1,-1,-1,-1,-1,-1,-1,-1,-1,-1,-1,-1,-1,-1,-1,-1,-1,-1,-1,-1,-1,-1],"split_conditions":[1E0,1E0,5E0,7E0,5E0,7.1E1,8.5E1,7.1E1,8.6E1,7.1E1,8.6E1,7.02E-1,7.14E-1,7E-1,7E-1,6.99E-1,7E-1,7.02E-1,7.05E-1,9.31E0,6.99E-1,-2.0227153E0,1.15E1,3.0468166E0,5.78E0,2.580243E0,3E0,3.6025083E0,6E0,3.0556927E0,9E0,2E0,3E0,1.804E1,3E0,1E1,7.1E1,9E0,1.933E1,-2.2451313E0,-2.0075507E0,-2.068963E0,1.627E1,7.02E-1,-2.0211952E0,2.3819873E0,2.688815E0,2.1202102E0,2.36203E0,9E0,1E1,2.3725429E0,2.6979823E0,-8.059652E-2,1.3068335E-1,-6.06297E-1,-2.5012755E-1,-4.30559E-1,5.055324E-2,-9.7415227E-1,-6.812605E-1,3.1802654E-1,1.2690721E-1,4.399521E-2,-1.9741522E-1,-1.8845914E-1,9.3775116E-2,-5.255838E-1,-4.995841E-2,-2.6139371E0,-2.2051873E0,-1.9473313E0,-2.3285623E0,2.6639483E0,2.9745066E0,3.4202182E0,2.8989205E0],"split_indices":[10,8,3,3,3,2,2,2,2,2,2,4,4,4,4,4,4,4,4,6,4,0,6,0,6,0,3,0,16,0,3,3,3,6,3,16,2,3,6,0,0,0,6,4,0,0,0,0,0,3,16,0,0,0,0,0,0,0,0,0,0,0,0,0,0,0,0,0,0,0,0,0,0,0,0,0,0],"split_type":[0,0,0,0,0,0,0,0,0,0,0,0,0,0,0,0,0,0,0,0,0,0,0,0,0,0,0,0,0,0,0,0,0,0,0,0,0,0,0,0,0,0,0,0,0,0,0,0,0,0,0,0,0,0,0,0,0,0,0,0,0,0,0,0,0,0,0,0,0,0,0,0,0,0,0,0,0],"sum_hessian":[9.627E3,7.192E3,2.435E3,4.747E3,2.445E3,8.17E2,1.618E3,2.265E3,2.482E3,8.16E2,1.629E3,3.48E2,4.69E2,1.119E3,4.99E2,9.46E2,1.319E3,1.761E3,7.21E2,3.51E2,4.65E2,1.165E3,4.64E2,6.1E1,2.87E2,9E1,3.79E2,1.64E2,9.55E2,6.6E1,4.33E2,1.51E2,7.95E2,2.19E2,1.1E3,2.78E2,1.483E3,1.19E2,6.02E2,1.92E2,1.59E2,6.6E1,3.99E2,3.03E2,1.61E2,1.3E2,1.57E2,2.27E2,1.52E2,4.02E2,5.53E2,1.74E2,2.59E2,4.5E1,1.06E2,3.5E2,4.45E2,1.74E2,4.5E1,4.62E2,6.38E2,2.07E2,7.1E1,8.7E2,6.13E2,3.5E1,8.4E1,5.1E2,9.2E1,3.37E2,6.2E1,5.1E1,2.52E2,1.73E2,2.29E2,3.38E2,2.15E2],"tree_param":{"num_deleted":"0","num_feature":"17","num_nodes":"77","size_leaf_vector":"1"}},{"base_weights":[-1.4380793E-1,5.8635216E0,-6.228129E0,5.0629073E-1,9.000122E0,-1.0547427E1,-1.9710358E0,1.1994631E1,-1.2992836E0,2.615312E0,1.2998997E1,-1.5128726E1,-6.403881E0,-7.7314014E0,9.22943E-1,2.6431198E1,1.6411946E0,1.288492E1,-2.346201E0,-5.0716534E0,5.2421856E0,8.950731E0,1.7528662E1,-1.0828227E1,-1.845094E1,-1.5624408E0,-9.741224E0,-4.5985007E0,-1.1643129E1,2.8080952E0,-3.963357E0,6.0064507E0,3.6704853E1,-1.1165496E0,3.4594017E1,6.81851E0,3.8624557E1,-6.8355405E-1,-1.1237159E1,-6.472048E0,4.0760174E1,2.0576994E1,3.8188174E0,2.3652122E1,6.8546276E0,1.2560811E1,2.3553293E1,-2.7698755E0,-1.232007E1,-1.1116266E1,-1.999504E1,-5.5720305E0,6.9282717E-1,-1.1313353E0,-1.1206236E1,2.0168164E0,-5.874286E0,-1.8412551E0,-1.342772E1,-1.7610422E-1,4.1796656E0,3.178584E0,-5.658756E0,2.1624603E0,-3.3132794E-1,2.1331823E0,8.331747E-1,6.0794604E-1,-4.179964E-1,2.4171112E0,4.2038628E-1,-4.0518743E-1,8.0447954E-1,1.2730316E0,2.2635229E0,1.7362957E-1,-2.492703E-1,-1.3349994E0,-4.3668324E-1,-2.3025143E-1,-2.0255766E0,6.789708E-1,2.6035326E0,2.204933E0,5.211576E-1,4.8947117E-1,1.2145978E-2,-4.7194225E-1,1.5679218E0,1.2362994E0,2.9230332E-1,7.4848074E-1,-4.3465862E-1,7.1532345E-1,1.4158183E0,-7.177591E-2,-4.99044E-1,-7.865003E-1,-4.4168314E-1,-3.1975338E-1,-6.9821656E-1,-1.1588862E0,-8.8102645E-1,1.2878124E-1,-3.6582026E-1,-1.9187564E-1,1.1408063E-1,4.9504526E-2,-2.9928955E-1,-6.680014E-1,-3.8576135E-1,2.1146896E-1,-1.3362788E-1,-3.9463228E-1,-1.9692404E-2,-2.3400009E-1,1.3770403E-1,-7.4713606E-1,-4.0076995E-1,2.751473E-1,-7.031557E-2,2.7032495E-2,2.5659975E-1,-8.9052476E-2,2.564391E-1,-5.917919E-1,-2.0229967E-1],"categories":[],"categories_nodes":[],"categories_segments":[],"categories_sizes":[],"default_left":[0,0,0,0,0,0,0,0,0,0,0,0,0,0,0,0,0,0,0,0,0,0,0,0,0,0,0,0,0,0,0,0,0,0,0,0,0,0,0,0,0,0,0,0,0,0,0,0,0,0,0,0,0,0,0,0,0,0,0,0,0,0,0,0,0,0,0,0,0,0,0,0,0,0,0,0,0,0,0,0,0,0,0,0,0,0,0,0,0,0,0,0,0,0,0,0,0,0,0,0,0,0,0,0,0,0,0,0,0,0,0,0,0,0,0,0,0,0,0,0,0,0,0,0,0,0,0],"id":10,"left_children":[1,3,5,7,9,11,13,15,17,19,21,23,25,27,29,31,33,35,37,39,41,43,45,47,49,51,53,55,57,59,61,63,65,67,69,71,73,75,77,79,81,83,85,87,89,91,93,95,97,99,101,103,105,107,109,111,113,115,117,119,121,123,125,-1,-1,-1,-1,-1,-1,-1,-1,-1,-1,-1,-1,-1,-1,-1,-1,-1,-1,-1,-1,-1,-1,-1,-1,-1,-1,-1,-1,-1,-1,-1,-1,-1,-1,-1,-1,-1,-1,-1,-1,-1,-1,-1,-1,-1,-1,-1,-1,-1,-1,-1,-1,-1,-1,-1,-1,-1,-1,-1,-1,-1,-1,-1,-1],"loss_changes":[3.501174E5,8.098733E4,8.74848E4,3.696003E4,7.7581875E4,4.4738438E4,3.998338E4,3.6125086E4,2.2897697E4,2.3692434E4,3.4112875E4,1.5813234E4,2.0051324E4,9.773391E3,1.4721652E4,2.0968781E4,1.2946288E4,1.6283699E4,2.1204047E4,1.9450982E4,1.8995848E4,3.0311492E4,2.6068438E4,5.8670703E3,6.921E3,4.5980396E3,9.257078E3,3.784791E3,6.2010156E3,4.720411E3,5.406491E3,1.6757342E4,7.2844375E3,1.2794288E4,3.548037E3,1.2167238E4,5.9003516E2,2.1651201E4,8.511979E3,1.830267E4,2.0531924E3,1.7208715E4,1.709819E4,3.1664328E4,1.5479512E4,2.496114E4,1.7075828E4,7.35051E2,4.7803945E3,1.4146445E3,3.5173281E3,2.6202173E3,2.3550625E3,1.1186495E3,4.6166875E3,7.6887305E2,4.144121E3,7.436013E2,2.3460312E3,2.5503816E3,2.7344346E3,8.4128424E2,3.5369043E3,0E0,0E0,0E0,0E0,0E0,0E0,0E0,0E0,0E0,0E0,0E0,0E0,0E0,0E0,0E0,0E0,0E0,0E0,0E0,0E0,0E0,0E0,0E0,0E0,0E0,0E0,0E0,0E0,0E0,0E0,0E0,0E0,0E0,0E0,0E0,0E0,0E0,0E0,0E0,0E0,0E0,0E0,0E0,0E0,0E0,0E0,0E0,0E0,0E0,0E0,0E0,0E0,0E0,0E0,0E0,0E0,0E0,0E0,0E0,0E0,0E0,0E0,0E0,0E0],"parents":[2147483647,0,0,1,1,2,2,3,3,4,4,5,5,6,6,7,7,8,8,9,9,10,10,11,11,12,12,13,13,14,14,15,15,16,16,17,17,18,18,19,19,20,20,21,21,22,22,23,23,24,24,25,25,26,26,27,27,28,28,29,29,30,30,31,31,32,32,33,33,34,34,35,35,36,36,37,37,38,38,39,39,40,40,41,41,42,42,43,43,44,44,45,45,46,46,47,47,48,48,49,49,50,50,51,51,52,52,53,53,54,54,55,55,56,56,57,57,58,58,59,59,60,60,61,61,62,62],"right_children":[2,4,6,8,10,12,14,16,18,20,22,24,26,28,30,32,34,36,38,40,42,44,46,48,50,52,54,56,58,60,62,64,66,68,70,72,74,76,78,80,82,84,86,88,90,92,94,96,98,100,102,104,106,108,110,112,114,116,118,120,122,124,126,-1,-1,-1,-1,-1,-1,-1,-1,-1,-1,-1,-1,-1,-1,-1,-1,-1,-1,-1,-1,-1,-1,-1,-1,-1,-1,-1,-1,-1,-1,-1,-1,-1,-1,-1,-1,-1,-1,-1,-1,-1,-1,-1,-1,-1,-1,-1,-1,-1,-1,-1,-1,-1,-1,-1,-1,-1,-1,-1,-1,-1,-1,-1,-1],"split_conditions":[1E0,4.1E1,5.2E1,6.93E-1,6E0,7E0,5E0,7.3E1,5.5244E2,4E0,2.03E2,7.2E1,7.1E1,7.7E1,8.6E1,1.37E2,3.19E2,5.1887E2,1.1E1,9.4E1,6E0,6.72E-1,7E1,7E-1,7.02E-1,2.6E1,7E-1,7.02E-1,6.99E-1,6.6E1,7.1E-1,4E0,4E1,5E0,3.4E2,1.76E2,5E0,7.5E1,5.6E1,5E1,1.11E2,7.47E-1,1.18316E3,6.8E1,4.4E1,6.8E1,1.09436E3,2.21527E3,1.84E2,8.6E1,6E0,6.99E-1,1.18E2,1E1,3.7E1,7.2E1,8.4E1,3E0,8.6E1,7.02E-1,1E2,6.2E1,7E0,2.1624603E0,-3.3132794E-1,2.1331823E0,8.331747E-1,6.0794604E-1,-4.179964E-1,2.4171112E0,4.2038628E-1,-4.0518743E-1,8.0447954E-1,1.2730316E0,2.2635229E0,1.7362957E-1,-2.492703E-1,-1.3349994E0,-4.3668324E-1,-2.3025143E-1,-2.0255766E0,6.789708E-1,2.6035326E0,2.204933E0,5.211576E-1,4.8947117E-1,1.2145978E-2,-4.7194225E-1,1.5679218E0,1.2362994E0,2.9230332E-1,7.4848074E-1,-4.3465862E-1,7.1532345E-1,1.4158183E0,-7.177591E-2,-4.99044E-1,-7.865003E-1,-4.4168314E-1,-3.1975338E-1,-6.9821656E-1,-1.1588862E0,-8.8102645E-1,1.2878124E-1,-3.6582026E-1,-1.9187564E-1,1.1408063E-1,4.9504526E-2,-2.9928955E-1,-6.680014E-1,-3.8576135E-1,2.1146896E-1,-1.3362788E-1,-3.9463228E-1,-1.9692404E-2,-2.3400009E-1,1.3770403E-1,-7.4713606E-1,-4.0076995E-1,2.751473E-1,-7.031557E-2,2.7032495E-2,2.5659975E-1,-8.9052476E-2,2.564391E-1,-5.917919E-1,-2.0229967E-1],"split_indices":[9,0,0,4,3,3,3,2,1,16,7,2,2,2,2,7,7,1,16,0,5,4,0,4,4,0,4,4,4,0,4,3,5,3,7,7,3,2,2,5,7,4,1,7,0,0,1,1,7,2,16,4,7,16,0,2,0,3,0,4,7,0,3,0,0,0,0,0,0,0,0,0,0,0,0,0,0,0,0,0,0,0,0,0,0,0,0,0,0,0,0,0,0,0,0,0,0,0,0,0,0,0,0,0,0,0,0,0,0,0,0,0,0,0,0,0,0,0,0,0,0,0,0,0,0,0,0],"split_type":[0,0,0,0,0,0,0,0,0,0,0,0,0,0,0,0,0,0,0,0,0,0,0,0,0,0,0,0,0,0,0,0,0,0,0,0,0,0,0,0,0,0,0,0,0,0,0,0,0,0,0,0,0,0,0,0,0,0,0,0,0,0,0,0,0,0,0,0,0,0,0,0,0,0,0,0,0,0,0,0,0,0,0,0,0,0,0,0,0,0,0,0,0,0,0,0,0,0,0,0,0,0,0,0,0,0,0,0,0,0,0,0,0,0,0,0,0,0,0,0,0,0,0,0,0,0,0],"sum_hessian":[9.577E3,4.819E3,4.758E3,1.78E3,3.039E3,2.361E3,2.397E3,2.41E2,1.539E3,1.171E3,1.868E3,1.12E3,1.241E3,8.01E2,1.596E3,1E2,1.41E2,1.05E2,1.434E3,2.98E2,8.73E2,9.88E2,8.8E2,4.9E2,6.3E2,5.07E2,7.34E2,4.46E2,3.55E2,1.152E3,4.44E2,3.4E1,6.6E1,1.31E2,1E1,8.6E1,1.9E1,1.209E3,2.25E2,2.9E2,8E0,7.3E1,8E2,1.22E2,8.66E2,4.84E2,3.96E2,7.7E1,4.13E2,1.11E2,5.19E2,1.82E2,3.25E2,1.07E2,6.27E2,7.2E1,3.74E2,5.5E1,3E2,3.63E2,7.89E2,8.5E1,3.59E2,8E0,2.6E1,5E1,1.6E1,4.6E1,8.5E1,6E0,4E0,3.3E1,5.3E1,8E0,1.1E1,6.15E2,5.94E2,3E1,1.95E2,2.76E2,1.4E1,3E0,5E0,2.1E1,5.2E1,2.99E2,5.01E2,2.3E1,9.9E1,4.5E1,8.21E2,4.35E2,4.9E1,1.36E2,2.6E2,6.6E1,1.1E1,2.07E2,2.06E2,4.3E1,6.8E1,2.18E2,3.01E2,3.2E1,1.5E2,8.4E1,2.41E2,7.5E1,3.2E1,3.86E2,2.41E2,4.9E1,2.3E1,2.73E2,1.01E2,3.4E1,2.1E1,2.33E2,6.7E1,6.4E1,2.99E2,1.64E2,6.25E2,2.4E1,6.1E1,7.3E1,2.86E2],"tree_param":{"num_deleted":"0","num_feature":"17","num_nodes":"127","size_leaf_vector":"1"}},{"base_weights":[-1.3593215E-1,1.4071021E1,-4.125949E1,8.590043E0,1.7795166E1,-4.5155647E1,-3.9869892E1,5.8807893E0,1.4835563E1,1.1793281E1,2.134106E1,-5.00279E1,-4.2034847E1,-4.408758E1,-3.9219547E1,1.0066625E1,2.7822304E0,1.9609163E1,1.1357517E1,1.4924723E1,3.9383628E0,2.3984228E1,1.4687659E1,-2.6651742E0,-2.2575927E0,-2.0000186E0,-2.339659E0,-2.0829687E0,-2.3992174E0,-1.9216509E0,-4.1185005E1,2.00743E1,8.07045E0,1.3770927E0,1.2315938E1,3.0081047E1,1.7666424E1,6.8514614E0,1.7515596E1,1.2854191E1,2.5230503E1,-8.905528E0,5.0379834E0,2.0222E1,2.7796558E1,1.0496878E1,1.882876E1,-4.333465E1,-1.9151009E0,5.3661303E-3,1.1304072E0,1.8735799E-1,5.667639E-1,-1.6293052E-1,1.7809458E-1,8.019623E-1,8.832217E-2,1.9234084E0,1.1292727E0,1.5517945E0,8.2220954E-1,6.134962E-2,5.5185E-1,4.5829135E-1,1.0842016E0,4.3080923E-1,8.3198863E-1,1.5474117E0,9.043992E-1,-9.224831E-1,-1.9820617E-1,-7.447171E-2,3.6622772E-1,8.469561E-1,1.2275041E0,1.490674E0,1.0748112E0,9.3015593E-1,3.6521396E-1,8.04825E-1,1.447029E0,-1.8177636E0,-2.2279334E0],"categories":[],"categories_nodes":[],"categories_segments":[],"categories_sizes":[],"default_left":[0,0,0,0,0,0,0,0,0,0,0,0,0,0,0,0,0,0,0,0,0,0,0,0,0,0,0,0,0,0,0,0,0,0,0,0,0,0,0,0,0,0,0,0,0,0,0,0,0,0,0,0,0,0,0,0,0,0,0,0,0,0,0,0,0,0,0,0,0,0,0,0,0,0,0,0,0,0,0,0,0,0,0],"id":11,"left_children":[1,3,5,7,9,11,13,15,17,19,21,23,25,27,29,31,33,35,37,39,41,43,45,-1,-1,-1,-1,-1,-1,-1,47,49,51,53,55,57,59,61,63,65,67,69,71,73,75,77,79,81,-1,-1,-1,-1,-1,-1,-1,-1,-1,-1,-1,-1,-1,-1,-1,-1,-1,-1,-1,-1,-1,-1,-1,-1,-1,-1,-1,-1,-1,-1,-1,-1,-1,-1,-1],"loss_changes":[5.6133815E6,1.4560625E5,1.15475E4,4.882842E4,9.0215E4,7.634375E3,3.274E3,2.6144281E4,1.4285031E4,3.8827562E4,4.6616125E4,1.4965625E3,1.9628125E3,2.25125E2,8.7025E2,1.69755E4,1.5534627E4,6.9301094E3,1.3973871E4,2.3784328E4,6.428259E3,2.6828E4,1.3023516E4,0E0,0E0,0E0,0E0,0E0,0E0,0E0,1.0650625E3,7.179543E3,1.0076328E4,1.0271381E4,5.822457E3,2.6455938E3,4.5831562E3,6.929954E3,7.246539E3,1.4982953E4,7.1130312E3,1.6224333E3,6.2353867E3,1.329125E4,1.13750625E4,9.721801E3,1.0083594E4,4.6496875E2,0E0,0E0,0E0,0E0,0E0,0E0,0E0,0E0,0E0,0E0,0E0,0E0,0E0,0E0,0E0,0E0,0E0,0E0,0E0,0E0,0E0,0E0,0E0,0E0,0E0,0E0,0E0,0E0,0E0,0E0,0E0,0E0,0E0,0E0,0E0],"parents":[2147483647,0,0,1,1,2,2,3,3,4,4,5,5,6,6,7,7,8,8,9,9,10,10,11,11,12,12,13,13,14,14,15,15,16,16,17,17,18,18,19,19,20,20,21,21,22,22,30,30,31,31,32,32,33,33,34,34,35,35,36,36,37,37,38,38,39,39,40,40,41,41,42,42,43,43,44,44,45,45,46,46,47,47],"right_children":[2,4,6,8,10,12,14,16,18,20,22,24,26,28,30,32,34,36,38,40,42,44,46,-1,-1,-1,-1,-1,-1,-1,48,50,52,54,56,58,60,62,64,66,68,70,72,74,76,78,80,82,-1,-1,-1,-1,-1,-1,-1,-1,-1,-1,-1,-1,-1,-1,-1,-1,-1,-1,-1,-1,-1,-1,-1,-1,-1,-1,-1,-1,-1,-1,-1,-1,-1,-1,-1],"split_conditions":[1E0,6E0,4E0,6.7E1,4.2E1,4.6E1,2E1,7.1E1,7.1E1,8.6E1,8.6E1,8.95E0,8.6E1,8.3E1,8.6E1,6.99E-1,2.155E1,7.02E-1,7.8E0,1.703E1,8.7E1,7.01E0,6.8E1,-2.6651742E0,-2.2575927E0,-2.0000186E0,-2.339659E0,-2.0829687E0,-2.3992174E0,-1.9216509E0,6.4E1,1.8E1,5.43E0,5E0,1E1,5.85E0,5.6175E2,1.75E2,7.7E1,1.77E2,7.1E1,9E0,3.07E0,2.19E2,1E1,7.55E-1,9.7E1,7E-1,-1.9151009E0,5.3661303E-3,1.1304072E0,1.8735799E-1,5.667639E-1,-1.6293052E-1,1.7809458E-1,8.019623E-1,8.832217E-2,1.9234084E0,1.1292727E0,1.5517945E0,8.2220954E-1,6.134962E-2,5.5185E-1,4.5829135E-1,1.0842016E0,4.3080923E-1,8.3198863E-1,1.5474117E0,9.043992E-1,-9.224831E-1,-1.9820617E-1,-7.447171E-2,3.6622772E-1,8.469561E-1,1.2275041E0,1.490674E0,1.0748112E0,9.3015593E-1,3.6521396E-1,8.04825E-1,1.447029E0,-1.8177636E0,-2.2279334E0],"split_indices":[8,3,3,0,0,0,0,2,2,2,2,6,2,2,2,4,6,4,6,6,2,6,0,0,0,0,0,0,0,0,0,0,6,16,16,6,1,7,0,7,2,3,6,7,16,4,2,4,0,0,0,0,0,0,0,0,0,0,0,0,0,0,0,0,0,0,0,0,0,0,0,0,0,0,0,0,0,0,0,0,0,0,0],"split_type":[0,0,0,0,0,0,0,0,0,0,0,0,0,0,0,0,0,0,0,0,0,0,0,0,0,0,0,0,0,0,0,0,0,0,0,0,0,0,0,0,0,0,0,0,0,0,0,0,0,0,0,0,0,0,0,0,0,0,0,0,0,0,0,0,0,0,0,0,0,0,0,0,0,0,0,0,0,0,0,0,0,0,0],"sum_hessian":[9.606E3,7.14E3,2.466E3,2.89E3,4.25E3,6.4E2,1.826E3,2.017E3,8.73E2,1.58E3,2.67E3,2.44E2,3.96E2,2.35E2,1.591E3,8.57E2,1.16E3,3.66E2,5.07E2,1.129E3,4.51E2,1.909E3,7.61E2,1.4E2,1.04E2,2.84E2,1.12E2,1.52E2,8.3E1,1.151E3,4.4E2,1.41E2,7.16E2,1.012E3,1.48E2,5.5E1,3.11E2,2.94E2,2.13E2,9.42E2,1.87E2,3.5E1,4.16E2,9.64E2,9.45E2,3.8E2,3.81E2,2.44E2,1.96E2,1.6E1,1.25E2,3.09E2,4.07E2,3.24E2,6.88E2,1.09E2,3.9E1,2.4E1,3.1E1,2.4E1,2.87E2,1.26E2,1.68E2,7.2E1,1.41E2,4.46E2,4.96E2,1.02E2,8.5E1,1.1E1,2.4E1,1.08E2,3.08E2,5.51E2,4.13E2,7.13E2,2.32E2,1.06E2,2.74E2,3.02E2,7.9E1,4.1E1,2.03E2],"tree_param":{"num_deleted":"0","num_feature":"17","num_nodes":"83","size_leaf_vector":"1"}},{"base_weights":[-1.3652891E-2,1.3532965E1,-3.9162422E1,5.2855427E1,-6.632683E0,-4.184985E1,-3.738113E1,4.904169E1,5.8612385E1,-1.0100639E1,-2.349704E0,-4.6193623E1,-3.9411427E1,-2.1012113E0,-1.8471844E0,4.441507E1,5.31231E1,5.3772278E1,6.3299927E1,-1.5452538E1,-7.2079344E0,-5.631978E0,1.5443721E0,-4.2488922E1,-2.4932568E0,-1.8937502E0,-4.3219666E1,4.664261E1,1.9501212E0,5.7855667E1,4.985285E1,5.791115E1,2.4986331E0,3.2819507E0,2.8065503E0,-1.3322E1,-2.0331085E1,-2.8069468E0,-9.992983E0,-3.6159496E0,-1.1013392E1,3.0150843E0,-2.5344536E0,-2.193214E0,-1.7274437E0,-4.6029533E1,-1.9299166E0,2.6815288E0,2.2623458E0,2.6801705E0,3.0329773E0,2.901351E0,2.404642E0,2.633175E0,3.0390928E0,-7.5357306E-1,-3.3208856E-1,-7.201976E-1,-1.0907154E0,-2.4512517E-1,2.430604E-2,-1.3201468E-1,-5.6979924E-1,1.5179954E-1,-2.4252497E-1,-1.3963266E-1,-6.3073987E-1,6.323903E-2,2.1896775E-1,1.7539172E-1,-2.009271E-1,-1.7752247E0,-2.406836E0],"categories":[],"categories_nodes":[],"categories_segments":[],"categories_sizes":[],"default_left":[0,0,0,0,0,0,0,0,0,0,0,0,0,0,0,0,0,0,0,0,0,0,0,0,0,0,0,0,0,0,0,0,0,0,0,0,0,0,0,0,0,0,0,0,0,0,0,0,0,0,0,0,0,0,0,0,0,0,0,0,0,0,0,0,0,0,0,0,0,0,0,0,0],"id":12,"left_children":[1,3,5,7,9,11,13,15,17,19,21,23,25,-1,-1,27,29,31,33,35,37,39,41,43,-1,-1,45,47,-1,49,51,53,-1,-1,-1,55,57,59,61,63,65,67,69,-1,-1,71,-1,-1,-1,-1,-1,-1,-1,-1,-1,-1,-1,-1,-1,-1,-1,-1,-1,-1,-1,-1,-1,-1,-1,-1,-1,-1,-1],"loss_changes":[5.079005E6,5.642286E6,1.02135E4,5.0071E4,6.984441E4,8.476875E3,1.465875E3,2.51435E4,1.827425E4,4.0122688E4,2.692679E4,2.551125E3,2.0411875E3,0E0,0E0,6.4795E3,9.0065E3,4.596625E3,4.3525E3,9.194656E3,2.0672688E4,1.2359215E4,5.790512E3,4.2053125E2,0E0,0E0,4.7434375E2,2.27425E3,0E0,4.093125E2,3.845375E3,1.32E2,0E0,0E0,0E0,7.3422188E3,2.0997578E3,4.5297563E3,1.0635086E4,6.855628E3,4.057461E3,1.6869097E3,2.3097737E3,0E0,0E0,5.669375E2,0E0,0E0,0E0,0E0,0E0,0E0,0E0,0E0,0E0,0E0,0E0,0E0,0E0,0E0,0E0,0E0,0E0,0E0,0E0,0E0,0E0,0E0,0E0,0E0,0E0,0E0,0E0],"parents":[2147483647,0,0,1,1,2,2,3,3,4,4,5,5,6,6,7,7,8,8,9,9,10,10,11,11,12,12,15,15,16,16,17,17,18,18,19,19,20,20,21,21,22,22,23,23,26,26,27,27,29,29,30,30,31,31,35,35,36,36,37,37,38,38,39,39,40,40,41,41,42,42,45,45],"right_children":[2,4,6,8,10,12,14,16,18,20,22,24,26,-1,-1,28,30,32,34,36,38,40,42,44,-1,-1,46,48,-1,50,52,54,-1,-1,-1,56,58,60,62,64,66,68,70,-1,-1,72,-1,-1,-1,-1,-1,-1,-1,-1,-1,-1,-1,-1,-1,-1,-1,-1,-1,-1,-1,-1,-1,-1,-1,-1,-1,-1,-1],"split_conditions":[1E0,1E0,6E0,6.1E1,5.7E1,4E1,1.7E1,7E0,8E0,5E0,8E0,7.5E1,8.6E1,-2.1012113E0,-1.8471844E0,8.5E1,7.1E1,7.1E1,8.6E1,8.5E1,7.1E1,8.6E1,8.6E1,2.089E1,-2.4932568E0,-1.8937502E0,7.4E1,6.95E-1,1.9501212E0,6E0,7E-1,3E0,2.4986331E0,3.2819507E0,2.8065503E0,1.683E1,7.13E-1,3.6E1,7E-1,7E-1,7.02E-1,6E0,7.1E-1,-2.193214E0,-1.7274437E0,6.96E-1,-1.9299166E0,2.6815288E0,2.2623458E0,2.6801705E0,3.0329773E0,2.901351E0,2.404642E0,2.633175E0,3.0390928E0,-7.5357306E-1,-3.3208856E-1,-7.201976E-1,-1.0907154E0,-2.4512517E-1,2.430604E-2,-1.3201468E-1,-5.6979924E-1,1.5179954E-1,-2.4252497E-1,-1.3963266E-1,-6.3073987E-1,6.323903E-2,2.1896775E-1,1.7539172E-1,-2.009271E-1,-1.7752247E0,-2.406836E0],"split_indices":[8,9,3,0,0,0,0,3,3,3,3,2,2,0,0,2,2,2,2,2,2,2,2,6,0,0,0,4,0,16,4,3,0,0,0,6,4,0,4,4,4,16,4,0,0,4,0,0,0,0,0,0,0,0,0,0,0,0,0,0,0,0,0,0,0,0,0,0,0,0,0,0,0],"split_type":[0,0,0,0,0,0,0,0,0,0,0,0,0,0,0,0,0,0,0,0,0,0,0,0,0,0,0,0,0,0,0,0,0,0,0,0,0,0,0,0,0,0,0,0,0,0,0,0,0,0,0,0,0,0,0,0,0,0,0,0,0,0,0,0,0,0,0,0,0,0,0,0,0],"sum_hessian":[9.575E3,7.114E3,2.461E3,2.411E3,4.703E3,9.72E2,1.489E3,1.456E3,9.55E2,2.598E3,2.105E3,3.43E2,6.29E2,1.2E2,1.369E3,6.88E2,7.68E2,4.76E2,4.79E2,9.1E2,1.688E3,1.142E3,9.63E2,1.77E2,1.66E2,4.56E2,1.73E2,4.82E2,2.06E2,3.07E2,4.61E2,2.21E2,2.55E2,3.55E2,1.24E2,6.36E2,2.74E2,6.55E2,1.033E3,8.32E2,3.1E2,7.08E2,2.55E2,1.47E2,3E1,1.02E2,7.1E1,7.4E1,4.08E2,1.3E2,1.77E2,7.6E1,3.85E2,8.5E1,1.36E2,5.03E2,1.33E2,5.7E1,2.17E2,4E2,2.55E2,1.66E2,8.67E2,1.3E2,7.02E2,5.1E1,2.59E2,3.11E2,3.97E2,5E1,2.05E2,2E1,8.2E1],"tree_param":{"num_deleted":"0","num_feature":"17","num_nodes":"73","size_leaf_vector":"1"}},{"base_weights":[-4.2428304E-2,-1.6701744E1,5.00891E1,-3.7242195E1,-6.2770853E0,4.6475883E1,5.5511242E1,-3.8728786E1,-1.7472767E0,-9.910453E0,-2.7299502E0,4.9381126E1,4.176452E1,5.7907463E1,4.9040462E1,-3.58564E1,-4.0963394E1,-7.6970487E0,-1.531102E1,4.6386835E-1,-5.0390277E0,2.8382163E0,4.780703E1,3.9956196E1,4.6423054E1,3.2955647E0,5.6333595E1,2.1556249E0,2.5364897E0,-3.7982845E1,-1.7368702E0,-1.7261208E0,-4.233307E1,-6.239286E-1,-8.911769E0,-9.237116E0,-1.6576015E1,-3.7006493E0,1.5122606E0,1.0688126E0,-6.380791E0,4.2194313E1,4.9246216E1,2.303506E0,3.8849216E1,1.8738737E0,2.4321988E0,5.4763546E1,3.1425812E0,-1.6891232E0,-1.9785146E0,-2.2507856E0,-1.9883562E0,-1.4085199E-1,1.5066542E-1,-5.9508246E-1,-3.16362E-1,-5.395707E-1,-1.9921345E-1,-8.729086E-1,-3.363522E-1,-6.2428553E-2,-3.3958155E-1,-1.9585876E-2,1.5612186E-1,2.214154E-1,-6.719293E-2,-1.2088134E-1,-3.974747E-1,2.3402743E0,1.9167252E0,2.350912E0,2.63729E0,2.0864055E0,1.8322222E0,2.5988688E0,2.8845503E0],"categories":[],"categories_nodes":[],"categories_segments":[],"categories_sizes":[],"default_left":[0,0,0,0,0,0,0,0,0,0,0,0,0,0,0,0,0,0,0,0,0,0,0,0,0,0,0,0,0,0,0,0,0,0,0,0,0,0,0,0,0,0,0,0,0,0,0,0,0,0,0,0,0,0,0,0,0,0,0,0,0,0,0,0,0,0,0,0,0,0,0,0,0,0,0,0,0],"id":13,"left_children":[1,3,5,7,9,11,13,15,-1,17,19,21,23,25,27,29,31,33,35,37,39,-1,41,43,45,-1,47,-1,-1,49,-1,-1,51,53,55,57,59,61,63,65,67,69,71,-1,73,-1,-1,75,-1,-1,-1,-1,-1,-1,-1,-1,-1,-1,-1,-1,-1,-1,-1,-1,-1,-1,-1,-1,-1,-1,-1,-1,-1,-1,-1,-1,-1],"loss_changes":[7.98911E6,1.5371951E6,4.41555E4,6.8915E3,6.1370312E4,1.76115E4,1.1864E4,7.88175E3,0E0,2.8006766E4,1.779075E4,7.5495E3,2.811875E3,4.929E3,4.3725E2,2.105E2,5.70325E3,1.4350484E4,5.0921094E3,4.428184E3,1.1480738E4,0E0,3.850125E3,9.563125E2,1.1285938E3,0E0,2.492E3,0E0,0E0,6.946875E1,0E0,0E0,2.78575E3,1.9707776E3,1.09421875E4,9.352656E2,4.780375E3,1.5368994E3,2.4847466E3,2.056915E3,7.1168906E3,9.915625E2,2.0245E3,0E0,6.909375E2,0E0,0E0,8.72875E2,0E0,0E0,0E0,0E0,0E0,0E0,0E0,0E0,0E0,0E0,0E0,0E0,0E0,0E0,0E0,0E0,0E0,0E0,0E0,0E0,0E0,0E0,0E0,0E0,0E0,0E0,0E0,0E0,0E0],"parents":[2147483647,0,0,1,1,2,2,3,3,4,4,5,5,6,6,7,7,9,9,10,10,11,11,12,12,13,13,14,14,15,15,16,16,17,17,18,18,19,19,20,20,22,22,23,23,24,24,26,26,29,29,32,32,33,33,34,34,35,35,36,36,37,37,38,38,39,39,40,40,41,41,42,42,44,44,47,47],"right_children":[2,4,6,8,10,12,14,16,-1,18,20,22,24,26,28,30,32,34,36,38,40,-1,42,44,46,-1,48,-1,-1,50,-1,-1,52,54,56,58,60,62,64,66,68,70,72,-1,74,-1,-1,76,-1,-1,-1,-1,-1,-1,-1,-1,-1,-1,-1,-1,-1,-1,-1,-1,-1,-1,-1,-1,-1,-1,-1,-1,-1,-1,-1,-1,-1],"split_conditions":[1E0,1E0,6.1E1,6.2E1,5.2E1,8.1E1,8.6E1,7.1E1,-1.7472767E0,8.6E1,7.1E1,7E-1,1.264E1,6.99E-1,1.03E2,2.7E1,7.02E-1,7E-1,7E-1,9.4E1,7.02E-1,2.8382163E0,2.2E1,7E-1,1E2,3.2955647E0,1.645E1,2.1556249E0,2.5364897E0,1.8E1,-1.7368702E0,-1.7261208E0,6.26E0,9.7E0,3E1,1.464E1,2.389E1,3.5E1,7.1E1,2.4E1,1.7E1,2.3E1,1.038E1,2.303506E0,2.5E1,1.8738737E0,2.4321988E0,2.02E2,3.1425812E0,-1.6891232E0,-1.9785146E0,-2.2507856E0,-1.9883562E0,-1.4085199E-1,1.5066542E-1,-5.9508246E-1,-3.16362E-1,-5.395707E-1,-1.9921345E-1,-8.729086E-1,-3.363522E-1,-6.2428553E-2,-3.3958155E-1,-1.9585876E-2,1.5612186E-1,2.214154E-1,-6.719293E-2,-1.2088134E-1,-3.974747E-1,2.3402743E0,1.9167252E0,2.350912E0,2.63729E0,2.0864055E0,1.8322222E0,2.5988688E0,2.8845503E0],"split_indices":[10,9,0,0,0,2,2,2,0,2,2,4,6,4,7,0,4,4,4,7,4,0,0,4,7,0,6,0,0,5,0,0,6,6,0,6,6,5,0,5,5,5,6,0,5,0,0,7,0,0,0,0,0,0,0,0,0,0,0,0,0,0,0,0,0,0,0,0,0,0,0,0,0,0,0,0,0],"split_type":[0,0,0,0,0,0,0,0,0,0,0,0,0,0,0,0,0,0,0,0,0,0,0,0,0,0,0,0,0,0,0,0,0,0,0,0,0,0,0,0,0,0,0,0,0,0,0,0,0,0,0,0,0,0,0,0,0,0,0,0,0,0,0,0,0,0,0,0,0,0,0,0,0,0,0,0,0],"sum_hessian":[9.564E3,7.179E3,2.385E3,2.416E3,4.763E3,1.437E3,9.48E2,1.457E3,9.59E2,2.352E3,2.411E3,8.83E2,5.54E2,6.86E2,2.62E2,6.45E2,8.12E2,1.67E3,6.82E2,1.012E3,1.399E3,1.49E2,7.34E2,4.06E2,1.48E2,1.06E2,5.8E2,6.4E1,1.98E2,2.11E2,4.34E2,1.47E2,6.65E2,2.45E2,1.425E3,1.19E2,5.63E2,2.03E2,8.09E2,2.52E2,1.147E3,1.56E2,5.78E2,5.6E1,3.5E2,3.3E1,1.15E2,4.75E2,1.05E2,6.4E1,1.47E2,3.17E2,3.48E2,1.53E2,9.2E1,6.59E2,7.66E2,9.1E1,2.8E1,5.16E2,4.7E1,1.14E2,8.9E1,3.71E2,4.38E2,1.05E2,1.47E2,3.26E2,8.21E2,6.6E1,9E1,3.62E2,2.16E2,1.44E2,2.06E2,2.53E2,2.22E2],"tree_param":{"num_deleted":"0","num_feature":"17","num_nodes":"77","size_leaf_vector":"1"}},{"base_weights":[3.202045E-1,1.2350106E1,-3.5379433E1,4.7608204E1,-5.884794E0,-3.9678757E1,-3.4355858E1,4.1372837E1,5.0542038E1,-9.708569E0,-2.4443772E0,-4.4108887E1,-3.681437E1,-3.757291E1,-3.3527447E1,3.747756E1,4.498084E1,4.495583E1,5.3974697E1,-1.4832881E1,-6.860843E0,-7.3047147E0,-1.779726E-1,-4.5929356E1,-1.7296069E0,-1.66075E0,-3.9150578E1,-1.7131045E0,-3.9813496E1,-3.4779625E1,-1.6270287E0,2.154752E0,3.5969425E1,4.299777E1,2.5055945E0,4.9303955E1,4.1678642E1,5.830396E1,5.0407913E1,-1.1003799E1,-1.7283337E1,-4.9352794E0,-1.2094301E1,4.5248765E-1,-8.795966E0,2.856746E0,-2.267671E0,-1.7373749E0,-2.3630383E0,-2.071719E0,-1.7481455E0,-1.6362228E0,-2.064589E0,-1.6858149E0,-3.7924957E1,1.8854477E0,1.5702913E0,2.525377E0,2.0636342E0,2.284984E0,2.643008E0,2.3785188E0,2.0128706E0,2.8193233E0,3.2970512E0,2.8623307E0,2.4605672E0,-7.3497444E-1,-3.883619E-1,-1.0140359E0,-7.5373167E-1,5.828002E-2,-3.125064E-1,-7.223995E-1,-3.7884805E-1,1.1930378E-1,-2.7098578E-1,-2.3211904E-1,-5.8714205E-1,5.7006128E-2,2.4723604E-1,-2.4013738E-1,2.6060278E-2,-2.0541751E0,-1.7128986E0],"categories":[],"categories_nodes":[],"categories_segments":[],"categories_sizes":[],"default_left":[0,0,0,0,0,0,0,0,0,0,0,0,0,0,0,0,0,0,0,0,0,0,0,0,0,0,0,0,0,0,0,0,0,0,0,0,0,0,0,0,0,0,0,0,0,0,0,0,0,0,0,0,0,0,0,0,0,0,0,0,0,0,0,0,0,0,0,0,0,0,0,0,0,0,0,0,0,0,0,0,0,0,0,0,0],"id":14,"left_children":[1,3,5,7,9,11,13,15,17,19,21,23,25,27,29,31,33,35,37,39,41,43,45,47,-1,-1,49,-1,51,53,-1,-1,55,57,-1,59,61,63,65,67,69,71,73,75,77,79,81,-1,-1,-1,-1,-1,-1,-1,83,-1,-1,-1,-1,-1,-1,-1,-1,-1,-1,-1,-1,-1,-1,-1,-1,-1,-1,-1,-1,-1,-1,-1,-1,-1,-1,-1,-1,-1,-1],"loss_changes":[4.0979422E6,4.588861E6,9.213E3,4.2408E4,6.187111E4,4.1545625E3,3.93E3,9.324375E3,2.9203E4,3.2408438E4,2.7294344E4,1.4176875E3,1.0720938E3,1.529E3,7.89125E2,1.68675E3,1.9264375E3,6.97025E3,1.275425E4,7.2664844E3,1.4389539E4,9.120355E3,1.0730144E4,4.7853125E2,0E0,0E0,1.3129688E2,0E0,1.02021875E3,9.65E2,0E0,0E0,1.253875E3,1.7539375E3,0E0,9.966875E2,1.157625E3,2.903375E3,1.795625E3,3.6274766E3,2.8883594E3,8.430613E3,3.9818047E3,1.4659943E3,8.0345547E3,2.466898E3,7.0870884E3,0E0,0E0,0E0,0E0,0E0,0E0,0E0,4.6135938E2,0E0,0E0,0E0,0E0,0E0,0E0,0E0,0E0,0E0,0E0,0E0,0E0,0E0,0E0,0E0,0E0,0E0,0E0,0E0,0E0,0E0,0E0,0E0,0E0,0E0,0E0,0E0,0E0,0E0,0E0],"parents":[2147483647,0,0,1,1,2,2,3,3,4,4,5,5,6,6,7,7,8,8,9,9,10,10,11,11,12,12,13,13,14,14,15,15,16,16,17,17,18,18,19,19,20,20,21,21,22,22,23,23,26,26,28,28,29,29,32,32,33,33,35,35,36,36,37,37,38,38,39,39,40,40,41,41,42,42,43,43,44,44,45,45,46,46,54,54],"right_children":[2,4,6,8,10,12,14,16,18,20,22,24,26,28,30,32,34,36,38,40,42,44,46,48,-1,-1,50,-1,52,54,-1,-1,56,58,-1,60,62,64,66,68,70,72,74,76,78,80,82,-1,-1,-1,-1,-1,-1,-1,84,-1,-1,-1,-1,-1,-1,-1,-1,-1,-1,-1,-1,-1,-1,-1,-1,-1,-1,-1,-1,-1,-1,-1,-1,-1,-1,-1,-1,-1,-1],"split_conditions":[1E0,1E0,3E0,5E0,7E0,4.6E1,2.6E1,4.9E1,4.4E1,4E1,3.7E1,1.549E1,7.1E1,7.1E1,8E0,7.02E-1,1.33E1,7.1E1,7.1E1,7.1E1,8.6E1,7.02E-1,7.1E1,6.96E-1,-1.7296069E0,-1.66075E0,9.2E0,-1.7131045E0,6.99E-1,8.7E1,-1.6270287E0,2.154752E0,8.6E1,7E-1,2.5055945E0,7.8E0,7.1E-1,1.664E1,7E-1,3E0,5.11E0,7E-1,1.106E1,1E1,7.1E1,7.39E0,6.7E1,-1.7373749E0,-2.3630383E0,-2.071719E0,-1.7481455E0,-1.6362228E0,-2.064589E0,-1.6858149E0,6.6E1,1.8854477E0,1.5702913E0,2.525377E0,2.0636342E0,2.284984E0,2.643008E0,2.3785188E0,2.0128706E0,2.8193233E0,3.2970512E0,2.8623307E0,2.4605672E0,-7.3497444E-1,-3.883619E-1,-1.0140359E0,-7.5373167E-1,5.828002E-2,-3.125064E-1,-7.223995E-1,-3.7884805E-1,1.1930378E-1,-2.7098578E-1,-2.3211904E-1,-5.8714205E-1,5.7006128E-2,2.4723604E-1,-2.4013738E-1,2.6060278E-2,-2.0541751E0,-1.7128986E0],"split_indices":[8,9,3,3,3,0,0,0,0,0,0,6,2,2,3,4,6,2,2,2,2,4,2,4,0,0,6,0,4,2,0,0,2,4,0,6,4,6,4,3,6,4,6,16,2,6,0,0,0,0,0,0,0,0,0,0,0,0,0,0,0,0,0,0,0,0,0,0,0,0,0,0,0,0,0,0,0,0,0,0,0,0,0,0,0],"split_type":[0,0,0,0,0,0,0,0,0,0,0,0,0,0,0,0,0,0,0,0,0,0,0,0,0,0,0,0,0,0,0,0,0,0,0,0,0,0,0,0,0,0,0,0,0,0,0,0,0,0,0,0,0,0,0,0,0,0,0,0,0,0,0,0,0,0,0,0,0,0,0,0,0,0,0,0,0,0,0,0,0,0,0,0,0],"sum_hessian":[9.54E3,7.136E3,2.404E3,2.432E3,4.704E3,4.55E2,1.949E3,7.83E2,1.649E3,2.227E3,2.477E3,1.73E2,2.82E2,3.9E2,1.559E3,3.82E2,4.01E2,6.33E2,1.016E3,7.94E2,1.433E3,7.87E2,1.69E3,1.42E2,3.1E1,1.17E2,1.65E2,1.64E2,2.26E2,6.72E2,8.87E2,7.5E1,3.07E2,2.96E2,1.05E2,2.66E2,3.67E2,4.52E2,5.64E2,3.12E2,4.82E2,1.049E3,3.84E2,1.27E2,6.6E2,6.89E2,1.001E3,1.8E1,1.24E2,1.01E2,6.4E1,4.3E1,1.83E2,5.11E2,1.61E2,2.17E2,9E1,5E1,2.46E2,1.39E2,1.27E2,6.5E1,3.02E2,3.68E2,8.4E1,7.7E1,4.87E2,1.44E2,1.68E2,2.01E2,2.81E2,1.86E2,8.63E2,2.51E2,1.33E2,9.6E1,3.1E1,2.75E2,3.85E2,3.79E2,3.1E2,5.24E2,4.77E2,8.1E1,8E1],"tree_param":{"num_deleted":"0","num_feature":"17","num_nodes":"85","size_leaf_vector":"1"}},{"base_weights":[2.8140134E-1,1.1669931E1,-3.362007E1,4.5247517E1,-5.6990066E0,-3.64351E1,-3.2241108E1,4.081627E1,4.905362E1,-1.0571688E1,-3.1678526E0,-3.9751743E1,-3.3184174E1,-3.5542923E1,-3.1705713E1,3.7608574E1,4.5565952E1,4.383788E1,5.213584E1,-1.3189097E1,-6.4523683E0,-6.943494E0,-3.9359486E-1,-3.5345234E1,-4.327181E1,-1.5831817E0,-3.694557E1,-3.34619E1,-1.966277E0,-3.2265327E1,-1.498465E0,3.984811E1,3.235273E1,4.78403E1,4.0231182E1,4.598794E1,3.7717655E1,2.7980158E0,4.9050945E1,-1.5213011E1,-8.534325E0,5.307788E-1,-7.815806E0,-2.9681566E0,-9.487849E0,1.266104E0,-4.905723E0,-3.8325836E1,-1.5729921E0,-1.6798762E0,-2.2447135E0,-4.0287025E1,-1.6366227E0,-1.7537361E0,-1.4352797E0,-1.571926E0,-3.4481686E1,1.6834738E0,2.0610402E0,1.425332E0,1.6996533E0,2.062947E0,2.4817452E0,1.4943999E0,2.0564094E0,2.175284E0,2.5395968E0,1.5737306E0,2.0311131E0,2.344991E0,2.644618E0,-6.086642E-1,-8.95827E-1,-2.356551E-1,-5.677927E-1,-2.1691354E-1,1.023486E-1,-4.7983417E-1,-1.19985595E-1,-3.202692E-1,-4.6718307E-2,-5.6553715E-1,-2.0484428E-1,-6.320757E-2,1.2714559E-1,-3.9099002E-1,-1.0034797E-1,-1.3009447E0,-1.9733216E0,-1.4418421E0,-2.1198025E0,-1.855678E0,-1.6284131E0],"categories":[],"categories_nodes":[],"categories_segments":[],"categories_sizes":[],"default_left":[0,0,0,0,0,0,0,0,0,0,0,0,0,0,0,0,0,0,0,0,0,0,0,0,0,0,0,0,0,0,0,0,0,0,0,0,0,0,0,0,0,0,0,0,0,0,0,0,0,0,0,0,0,0,0,0,0,0,0,0,0,0,0,0,0,0,0,0,0,0,0,0,0,0,0,0,0,0,0,0,0,0,0,0,0,0,0,0,0,0,0,0,0],"id":15,"left_children":[1,3,5,7,9,11,13,15,17,19,21,23,25,27,29,31,33,35,37,39,41,43,45,47,49,-1,51,53,-1,55,-1,57,59,61,63,65,67,-1,69,71,73,75,77,79,81,83,85,87,-1,-1,-1,89,-1,-1,-1,-1,91,-1,-1,-1,-1,-1,-1,-1,-1,-1,-1,-1,-1,-1,-1,-1,-1,-1,-1,-1,-1,-1,-1,-1,-1,-1,-1,-1,-1,-1,-1,-1,-1,-1,-1,-1,-1],"loss_changes":[3.7064485E6,4.1911875E6,8.189E3,3.931E4,5.838897E4,7.148375E3,1.746E3,1.5616E4,1.881275E4,1.736889E4,3.2666818E4,4.419E3,1.1282188E3,4.006875E2,3.97875E2,6.7665625E3,3.5749375E3,4.7575625E3,6.91925E3,9.185016E3,6.0126797E3,1.333207E4,1.347888E4,8.2553125E2,1.7643125E3,0E0,2.225625E2,1.22109375E2,0E0,8.4075E2,0E0,2.64175E3,3.4957812E2,1.639875E3,8.1125E1,2.08575E3,1.144125E3,0E0,1.327E3,5.432875E3,3.2009434E3,7.764228E2,5.068545E3,3.6074214E3,7.8629844E3,4.254877E3,4.0717793E3,3.00125E2,0E0,0E0,0E0,1.4678906E2,0E0,0E0,0E0,0E0,1.7421875E2,0E0,0E0,0E0,0E0,0E0,0E0,0E0,0E0,0E0,0E0,0E0,0E0,0E0,0E0,0E0,0E0,0E0,0E0,0E0,0E0,0E0,0E0,0E0,0E0,0E0,0E0,0E0,0E0,0E0,0E0,0E0,0E0,0E0,0E0,0E0,0E0],"parents":[2147483647,0,0,1,1,2,2,3,3,4,4,5,5,6,6,7,7,8,8,9,9,10,10,11,11,12,12,13,13,14,14,15,15,16,16,17,17,18,18,19,19,20,20,21,21,22,22,23,23,24,24,26,26,27,27,29,29,31,31,32,32,33,33,34,34,35,35,36,36,38,38,39,39,40,40,41,41,42,42,43,43,44,44,45,45,46,46,47,47,51,51,56,56],"right_children":[2,4,6,8,10,12,14,16,18,20,22,24,26,28,30,32,34,36,38,40,42,44,46,48,50,-1,52,54,-1,56,-1,58,60,62,64,66,68,-1,70,72,74,76,78,80,82,84,86,88,-1,-1,-1,90,-1,-1,-1,-1,92,-1,-1,-1,-1,-1,-1,-1,-1,-1,-1,-1,-1,-1,-1,-1,-1,-1,-1,-1,-1,-1,-1,-1,-1,-1,-1,-1,-1,-1,-1,-1,-1,-1,-1,-1,-1],"split_conditions":[1E0,1E0,5E0,7E0,5E0,5.4E1,2.1E1,5.9E1,4.4E1,6.1E1,4.6E1,7.1E1,8.6E1,8.3E1,1.38E1,8.5E1,8.4E1,8.6E1,7.1E1,1.33E1,7.02E-1,7.1E1,8.7E1,9.82E0,6.95E-1,-1.5831817E0,7.5E1,1.251E1,-1.966277E0,8.6E1,-1.498465E0,9.7E1,1.09E2,1.05E2,1.28E0,1.15E1,1.33E2,2.7980158E0,7.8E1,7.3E1,7.1E1,1.12E2,1.495E1,9E0,1.279E1,1.38E2,7.47E0,7.1E-1,-1.5729921E0,-1.6798762E0,-2.2447135E0,6.93E-1,-1.6366227E0,-1.7537361E0,-1.4352797E0,-1.571926E0,9E0,1.6834738E0,2.0610402E0,1.425332E0,1.6996533E0,2.062947E0,2.4817452E0,1.4943999E0,2.0564094E0,2.175284E0,2.5395968E0,1.5737306E0,2.0311131E0,2.344991E0,2.644618E0,-6.086642E-1,-8.95827E-1,-2.356551E-1,-5.677927E-1,-2.1691354E-1,1.023486E-1,-4.7983417E-1,-1.19985595E-1,-3.202692E-1,-4.6718307E-2,-5.6553715E-1,-2.0484428E-1,-6.320757E-2,1.2714559E-1,-3.9099002E-1,-1.0034797E-1,-1.3009447E0,-1.9733216E0,-1.4418421E0,-2.1198025E0,-1.855678E0,-1.6284131E0],"split_indices":[8,9,3,3,3,0,0,0,0,0,0,2,2,2,6,2,2,2,2,6,4,2,2,6,4,0,0,6,0,2,0,7,7,7,6,6,7,0,0,2,2,7,6,3,6,7,6,4,0,0,0,4,0,0,0,0,3,0,0,0,0,0,0,0,0,0,0,0,0,0,0,0,0,0,0,0,0,0,0,0,0,0,0,0,0,0,0,0,0,0,0,0,0],"split_type":[0,0,0,0,0,0,0,0,0,0,0,0,0,0,0,0,0,0,0,0,0,0,0,0,0,0,0,0,0,0,0,0,0,0,0,0,0,0,0,0,0,0,0,0,0,0,0,0,0,0,0,0,0,0,0,0,0,0,0,0,0,0,0,0,0,0,0,0,0,0,0,0,0,0,0,0,0,0,0,0,0,0,0,0,0,0,0,0,0,0,0,0,0],"sum_hessian":[9.598E3,7.185E3,2.413E3,2.449E3,4.736E3,7.85E2,1.628E3,1.137E3,1.312E3,1.618E3,3.118E3,3.83E2,4.02E2,2.18E2,1.41E3,6.84E2,4.53E2,4.93E2,8.19E2,9.88E2,6.3E2,1.32E3,1.798E3,1.75E2,2.08E2,2.93E2,1.09E2,1.47E2,7.1E1,1.053E3,3.57E2,4.75E2,2.09E2,3.12E2,1.41E2,3.6E2,1.33E2,3.58E2,4.61E2,6.87E2,3.01E2,1.03E2,5.27E2,5.16E2,8.04E2,1.315E3,4.83E2,9.4E1,8.1E1,3.3E1,1.75E2,5.6E1,5.3E1,1.05E2,4.2E1,7.78E2,2.75E2,9.1E1,3.84E2,6.8E1,1.41E2,7.2E1,2.4E2,1.4E1,1.27E2,2.44E2,1.16E2,4.6E1,8.7E1,3.04E2,1.57E2,3.26E2,3.61E2,1.29E2,1.72E2,2.4E1,7.9E1,3.96E2,1.31E2,1.91E2,3.25E2,6E2,2.04E2,4.41E2,8.74E2,2.4E2,2.43E2,1E1,8.4E1,1.1E1,4.5E1,1.08E2,1.67E2],"tree_param":{"num_deleted":"0","num_feature":"17","num_nodes":"93","size_leaf_vector":"1"}},{"base_weights":[8.819354E-2,1.0968634E1,-3.2026287E1,4.307494E1,-5.2783446E0,-3.530394E1,-3.0907753E1,3.97968E1,4.792399E1,-8.321493E0,-1.7038671E0,-4.058522E1,-3.2979397E1,-3.3755943E1,-3.0179865E1,3.5955193E1,4.3236607E1,4.1134277E1,5.0161564E1,-1.0860273E1,-3.5783503E0,-6.0850983E0,3.7330055E-1,-3.6247215E1,-2.1663365E0,-1.4962002E0,-3.51551E1,-3.1873312E1,-3.7043327E1,-1.4455032E0,-3.0889185E1,3.796654E1,3.168505E1,2.539456E0,4.1752796E1,3.8979355E1,2.2807462E0,5.2328423E1,2.210571E0,-8.969609E0,-1.5500015E1,-5.3599157E0,1.1866306E0,1.6953504E0,-7.5995355E0,2.9539118E0,-2.0114565E0,-1.4437659E0,-1.9162754E0,-3.766239E1,-1.5558417E0,-3.338309E1,-1.426679E0,-1.4476669E0,-3.8567757E1,-1.5027348E0,-3.329013E1,1.6514304E0,1.9815581E0,1.7879765E0,1.4800385E0,2.1894693E0,1.7908579E0,2.2853E0,1.8563938E0,2.9907632E0,2.5445585E0,-1.2689294E-1,-5.1487154E-1,-4.7867337E-1,-8.440691E-1,1.02630556E-1,-3.3563703E-1,1.7356926E-1,-1.0090697E-1,-1.130622E-1,2.2614825E-1,-1.7941765E-1,-5.1429504E-1,2.6214525E-1,6.612726E-2,1.7169432E-1,-1.634182E-1,-2.055353E0,-1.7131197E0,-1.3530818E0,-1.7183555E0,-1.6017102E0,-2.052993E0,-1.7856398E0,-1.4961283E0],"categories":[],"categories_nodes":[],"categories_segments":[],"categories_sizes":[],"default_left":[0,0,0,0,0,0,0,0,0,0,0,0,0,0,0,0,0,0,0,0,0,0,0,0,0,0,0,0,0,0,0,0,0,0,0,0,0,0,0,0,0,0,0,0,0,0,0,0,0,0,0,0,0,0,0,0,0,0,0,0,0,0,0,0,0,0,0,0,0,0,0,0,0,0,0,0,0,0,0,0,0,0,0,0,0,0,0,0,0,0,0],"id":16,"left_children":[1,3,5,7,9,11,13,15,17,19,21,23,25,27,29,31,33,35,37,39,41,43,45,47,-1,-1,49,51,53,-1,55,57,59,-1,61,63,-1,65,-1,67,69,71,73,75,77,79,81,-1,-1,83,-1,85,-1,-1,87,-1,89,-1,-1,-1,-1,-1,-1,-1,-1,-1,-1,-1,-1,-1,-1,-1,-1,-1,-1,-1,-1,-1,-1,-1,-1,-1,-1,-1,-1,-1,-1,-1,-1,-1,-1],"loss_changes":[3.3649112E6,3.752319E6,7.83675E3,3.6504E4,5.1947438E4,6.1796875E3,2.7585E3,1.7572E4,1.266425E4,3.1027531E4,2.0005855E4,5.979375E2,1.806625E3,1.0590312E3,4.18625E2,4.7163125E3,6.375875E3,5.8871875E2,7.02425E3,1.4595828E4,7.6554775E3,8.344057E3,9.187999E3,6.6328125E1,0E0,0E0,1.3119375E3,2.4132812E2,4.305E2,0E0,8.445E2,2.49775E3,8.6271875E2,0E0,6.16025E3,4.4934375E2,0E0,2.604875E3,0E0,1.018668E4,3.8063047E3,6.5925137E3,1.8083909E3,1.3082296E3,6.340797E3,2.6698213E3,5.322377E3,0E0,0E0,3.0567188E2,0E0,4.6671875E1,0E0,0E0,3.544375E2,0E0,7.931094E2,0E0,0E0,0E0,0E0,0E0,0E0,0E0,0E0,0E0,0E0,0E0,0E0,0E0,0E0,0E0,0E0,0E0,0E0,0E0,0E0,0E0,0E0,0E0,0E0,0E0,0E0,0E0,0E0,0E0,0E0,0E0,0E0,0E0,0E0],"parents":[2147483647,0,0,1,1,2,2,3,3,4,4,5,5,6,6,7,7,8,8,9,9,10,10,11,11,12,12,13,13,14,14,15,15,16,16,17,17,18,18,19,19,20,20,21,21,22,22,23,23,26,26,27,27,28,28,30,30,31,31,32,32,34,34,35,35,37,37,39,39,40,40,41,41,42,42,43,43,44,44,45,45,46,46,49,49,51,51,54,54,56,56],"right_children":[2,4,6,8,10,12,14,16,18,20,22,24,26,28,30,32,34,36,38,40,42,44,46,48,-1,-1,50,52,54,-1,56,58,60,-1,62,64,-1,66,-1,68,70,72,74,76,78,80,82,-1,-1,84,-1,86,-1,-1,88,-1,90,-1,-1,-1,-1,-1,-1,-1,-1,-1,-1,-1,-1,-1,-1,-1,-1,-1,-1,-1,-1,-1,-1,-1,-1,-1,-1,-1,-1,-1,-1,-1,-1,-1,-1],"split_conditions":[1E0,1E0,4E0,6.1E1,8E0,3.9E1,2.6E1,7E0,4E0,6.4E1,3.7E1,7.2E1,7.1E1,8.3E1,1.9E1,8.5E1,7E-1,1.236E1,8.6E1,8.6E1,1.347E1,7E-1,7.5E1,1.8E1,-2.1663365E0,-1.4962002E0,7.5E1,1.094E1,6.99E-1,-1.4455032E0,8.7E1,2.4E1,1.9E1,2.539456E0,8.8E1,7E-1,2.2807462E0,6.99E-1,2.210571E0,7E-1,7.02E-1,6.99E-1,7.7E1,6.19E0,7.1E1,2.3E1,7.1E-1,-1.4437659E0,-1.9162754E0,6E0,-1.5558417E0,7E-1,-1.426679E0,-1.4476669E0,1.9E1,-1.5027348E0,6.4E1,1.6514304E0,1.9815581E0,1.7879765E0,1.4800385E0,2.1894693E0,1.7908579E0,2.2853E0,1.8563938E0,2.9907632E0,2.5445585E0,-1.2689294E-1,-5.1487154E-1,-4.7867337E-1,-8.440691E-1,1.02630556E-1,-3.3563703E-1,1.7356926E-1,-1.0090697E-1,-1.130622E-1,2.2614825E-1,-1.7941765E-1,-5.1429504E-1,2.6214525E-1,6.612726E-2,1.7169432E-1,-1.634182E-1,-2.055353E0,-1.7131197E0,-1.3530818E0,-1.7183555E0,-1.6017102E0,-2.052993E0,-1.7856398E0,-1.4961283E0],"split_indices":[8,9,3,0,3,0,0,3,3,0,0,2,2,2,5,2,4,6,2,2,6,4,2,5,0,0,0,6,4,0,2,0,5,0,2,4,0,4,0,4,4,4,2,6,2,5,4,0,0,16,0,4,0,0,5,0,0,0,0,0,0,0,0,0,0,0,0,0,0,0,0,0,0,0,0,0,0,0,0,0,0,0,0,0,0,0,0,0,0,0,0],"split_type":[0,0,0,0,0,0,0,0,0,0,0,0,0,0,0,0,0,0,0,0,0,0,0,0,0,0,0,0,0,0,0,0,0,0,0,0,0,0,0,0,0,0,0,0,0,0,0,0,0,0,0,0,0,0,0,0,0,0,0,0,0,0,0,0,0,0,0,0,0,0,0,0,0,0,0,0,0,0,0,0,0,0,0,0,0,0,0,0,0,0,0],"sum_hessian":[9.628E3,7.192E3,2.436E3,2.416E3,4.776E3,6.12E2,1.824E3,1.447E3,9.69E2,2.579E3,2.197E3,1.82E2,4.3E2,3.62E2,1.462E3,6.89E2,7.58E2,2.45E2,7.24E2,1.679E3,9E2,7.06E2,1.491E3,7.6E1,1.06E2,1.85E2,2.45E2,2.37E2,1.25E2,5.39E2,9.23E2,4.63E2,2.26E2,1.19E2,6.39E2,1.72E2,7.3E1,5.25E2,1.99E2,1.195E3,4.84E2,6.55E2,2.45E2,1.15E2,5.91E2,7.16E2,7.75E2,2E1,5.6E1,1.46E2,9.9E1,1.57E2,8E1,2.3E1,1.02E2,6.95E2,2.28E2,1.22E2,3.41E2,7.1E1,1.55E2,4.71E2,1.68E2,3.2E1,1.4E2,7.8E1,4.47E2,2.05E2,9.9E2,9.3E1,3.91E2,1.01E2,5.54E2,1.43E2,1.02E2,4.8E1,6.7E1,2.38E2,3.53E2,2.97E2,4.19E2,1.45E2,6.3E2,6.7E1,7.9E1,2.5E1,1.32E2,3.2E1,7E1,1.27E2,1.01E2],"tree_param":{"num_deleted":"0","num_feature":"17","num_nodes":"91","size_leaf_vector":"1"}},{"base_weights":[5.5146543E-4,-1.3701759E1,4.0971294E1,-5.014227E0,-3.0378908E1,3.787222E1,4.5690704E1,-9.400167E0,-2.7389715E0,-3.3570663E1,-2.9280632E1,3.30909E1,4.0245968E1,4.0471947E1,4.8394268E1,-1.3910106E1,-6.8468266E0,-5.745608E0,1.6356188E-1,-3.7256237E1,-3.0987455E1,-3.1965956E1,-2.8599901E1,2.9198877E1,3.4815845E1,4.3481365E1,3.7123554E1,3.8413456E1,2.3435984E0,5.1784424E1,4.5257046E1,-1.5513117E1,-8.554178E0,-8.420041E0,-1.6713023E0,-7.282513E0,-1.0833809E0,2.2096355E0,-1.9006531E0,-3.8740215E1,-1.5142688E0,-3.349203E1,-2.8936615E1,-3.346389E1,-1.4273007E0,-2.9195705E1,-1.3618375E0,1.259527E0,1.5585461E0,1.4340411E0,3.6076633E1,1.9569149E0,4.5268444E1,3.1667122E1,3.886755E1,1.6828803E0,2.0153918E0,2.4930363E0,2.880733E0,2.0931017E0,2.4332864E0,-8.9406043E-1,-6.4377016E-1,-6.0270375E-1,-2.7494386E-1,-6.249921E-1,-3.218225E-1,-1.9344373E-1,7.81618E-2,-1.5660904E-1,-4.4414815E-1,-2.1210793E-1,1.205281E-1,3.3269364E-2,1.9237159E-1,-2.3836298E-1,3.4508423E-3,-2.0942626E0,-1.7792548E0,-1.7352232E0,-1.3498588E0,-1.3578932E0,-1.6414546E0,-1.8083266E0,-1.5541819E0,-1.5241225E0,-1.4031398E0,1.6431983E0,1.8999579E0,2.1869555E0,2.5815961E0,7.2405845E-1,1.598266E0,1.7684844E0,2.067486E0],"categories":[],"categories_nodes":[],"categories_segments":[],"categories_sizes":[],"default_left":[0,0,0,0,0,0,0,0,0,0,0,0,0,0,0,0,0,0,0,0,0,0,0,0,0,0,0,0,0,0,0,0,0,0,0,0,0,0,0,0,0,0,0,0,0,0,0,0,0,0,0,0,0,0,0,0,0,0,0,0,0,0,0,0,0,0,0,0,0,0,0,0,0,0,0,0,0,0,0,0,0,0,0,0,0,0,0,0,0,0,0,0,0,0,0],"id":17,"left_children":[1,3,5,7,9,11,13,15,17,19,21,23,25,27,29,31,33,35,37,39,41,43,45,47,49,51,53,55,-1,57,59,61,63,65,67,69,71,73,75,77,-1,79,81,83,-1,85,-1,-1,-1,-1,87,-1,89,91,93,-1,-1,-1,-1,-1,-1,-1,-1,-1,-1,-1,-1,-1,-1,-1,-1,-1,-1,-1,-1,-1,-1,-1,-1,-1,-1,-1,-1,-1,-1,-1,-1,-1,-1,-1,-1,-1,-1,-1,-1],"loss_changes":[5.4073485E6,1.0456116E6,3.3568E4,4.7343984E4,7.67625E3,1.526575E4,1.14645E4,1.8569156E4,2.72904E4,4.798625E3,2.456E3,2.273375E3,8.20725E3,2.5516875E3,4.262E3,4.8874766E3,8.428391E3,1.0997328E4,6.7280996E3,1.4370625E3,9.4565625E2,9.0834375E2,4.03625E2,4.501875E2,1.5500312E3,1.8831875E3,3.5391875E3,9.423125E2,0E0,3.915E2,1.7841875E3,2.5713125E3,1.3969355E3,6.3513125E3,1.7335546E3,7.642949E3,4.2263857E3,2.0203201E3,4.478289E3,5.3596875E2,0E0,3.3257812E2,5.771875E2,4.6446875E2,0E0,6.226875E2,0E0,0E0,0E0,0E0,4.364375E2,0E0,9.241875E2,1.833125E2,1.7943125E3,0E0,0E0,0E0,0E0,0E0,0E0,0E0,0E0,0E0,0E0,0E0,0E0,0E0,0E0,0E0,0E0,0E0,0E0,0E0,0E0,0E0,0E0,0E0,0E0,0E0,0E0,0E0,0E0,0E0,0E0,0E0,0E0,0E0,0E0,0E0,0E0,0E0,0E0,0E0,0E0],"parents":[2147483647,0,0,1,1,2,2,3,3,4,4,5,5,6,6,7,7,8,8,9,9,10,10,11,11,12,12,13,13,14,14,15,15,16,16,17,17,18,18,19,19,20,20,21,21,22,22,23,23,24,24,25,25,26,26,27,27,29,29,30,30,31,31,32,32,33,33,34,34,35,35,36,36,37,37,38,38,39,39,41,41,42,42,43,43,45,45,50,50,52,52,53,53,54,54],"right_children":[2,4,6,8,10,12,14,16,18,20,22,24,26,28,30,32,34,36,38,40,42,44,46,48,50,52,54,56,-1,58,60,62,64,66,68,70,72,74,76,78,-1,80,82,84,-1,86,-1,-1,-1,-1,88,-1,90,92,94,-1,-1,-1,-1,-1,-1,-1,-1,-1,-1,-1,-1,-1,-1,-1,-1,-1,-1,-1,-1,-1,-1,-1,-1,-1,-1,-1,-1,-1,-1,-1,-1,-1,-1,-1,-1,-1,-1,-1,-1],"split_conditions":[1E0,1E0,9E0,5E0,4E0,3.8E1,4.2E1,4E1,5.2E1,4.8E1,2.6E1,3E0,2.6E1,1.415E1,2.5E1,1.53E1,1.645E1,1.292E1,2.8E1,1.565E1,6E0,1.15E1,1.174E1,6E0,9.9E1,3E0,1.09E2,1.35E2,2.3435984E0,1.511E1,8.85E0,2E2,1.75E2,1.31E2,7.1E1,1.6E1,1.98E2,1.98E2,6E0,1.72E2,-1.5142688E0,1.603E1,1.1E1,6E0,-1.4273007E0,9E0,-1.3618375E0,1.259527E0,1.5585461E0,1.4340411E0,6E0,1.9569149E0,1.565E1,2.2E-1,6E0,1.6828803E0,2.0153918E0,2.4930363E0,2.880733E0,2.0931017E0,2.4332864E0,-8.9406043E-1,-6.4377016E-1,-6.0270375E-1,-2.7494386E-1,-6.249921E-1,-3.218225E-1,-1.9344373E-1,7.81618E-2,-1.5660904E-1,-4.4414815E-1,-2.1210793E-1,1.205281E-1,3.3269364E-2,1.9237159E-1,-2.3836298E-1,3.4508423E-3,-2.0942626E0,-1.7792548E0,-1.7352232E0,-1.3498588E0,-1.3578932E0,-1.6414546E0,-1.8083266E0,-1.5541819E0,-1.5241225E0,-1.4031398E0,1.6431983E0,1.8999579E0,2.1869555E0,2.5815961E0,7.2405845E-1,1.598266E0,1.7684844E0,2.067486E0],"split_indices":[10,8,3,3,3,0,0,0,0,0,0,3,5,6,5,6,6,6,5,6,16,6,6,16,7,3,7,7,0,6,6,7,7,7,0,5,7,7,16,7,0,6,16,16,0,3,0,0,0,0,16,0,6,6,16,0,0,0,0,0,0,0,0,0,0,0,0,0,0,0,0,0,0,0,0,0,0,0,0,0,0,0,0,0,0,0,0,0,0,0,0,0,0,0,0],"split_type":[0,0,0,0,0,0,0,0,0,0,0,0,0,0,0,0,0,0,0,0,0,0,0,0,0,0,0,0,0,0,0,0,0,0,0,0,0,0,0,0,0,0,0,0,0,0,0,0,0,0,0,0,0,0,0,0,0,0,0,0,0,0,0,0,0,0,0,0,0,0,0,0,0,0,0,0,0,0,0,0,0,0,0,0,0,0,0,0,0,0,0,0,0,0,0],"sum_hessian":[9.63E3,7.217E3,2.413E3,4.746E3,2.471E3,1.462E3,9.51E2,1.62E3,3.126E3,6.25E2,1.846E3,4.9E2,9.72E2,3.3E2,6.21E2,5.84E2,1.036E3,1.535E3,1.591E3,2.52E2,3.73E2,3.64E2,1.482E3,1.56E2,3.34E2,4.71E2,5.01E2,2.55E2,7.5E1,2.91E2,3.3E2,4.48E2,1.36E2,7.94E2,2.42E2,1.154E3,3.81E2,7.99E2,7.92E2,2.04E2,4.8E1,1.61E2,2.12E2,2.47E2,1.17E2,1.017E3,4.65E2,5.6E1,1E2,6.1E1,2.73E2,1.44E2,3.27E2,1.26E2,3.75E2,7.8E1,1.77E2,2.26E2,6.5E1,1.72E2,1.58E2,2.33E2,2.15E2,6.2E1,7.4E1,2.58E2,5.36E2,1.44E2,9.8E1,3.22E2,8.32E2,2E2,1.81E2,4.12E2,3.87E2,3.22E2,4.7E2,9.6E1,1.08E2,1.32E2,2.9E1,1.51E2,6.1E1,1.09E2,1.38E2,4.64E2,5.53E2,1.09E2,1.64E2,2.7E2,5.7E1,3E0,1.23E2,1.62E2,2.13E2],"tree_param":{"num_deleted":"0","num_feature":"17","num_nodes":"95","size_leaf_vector":"1"}},{"base_weights":[1.1913263E-1,-1.2971331E1,3.8859528E1,-4.7770576E0,-2.8856043E1,3.3596416E1,4.133877E1,-9.891807E0,-2.8922772E0,-3.1000454E1,-2.7390789E1,3.0533108E1,3.663592E1,4.5223835E1,3.828011E1,-1.4139308E1,-7.3275113E0,-5.015239E0,1.2046336E0,-3.3089718E1,-2.7926773E1,-1.3372699E0,-2.9249666E1,3.220527E1,2.6586266E1,2.163419E0,3.5232895E1,4.0503757E1,4.773097E1,3.2773705E1,4.0578247E1,-1.6749863E1,-1.1402047E1,-4.1224074E0,-9.818888E0,-1.4377549E0,-7.318005E0,2.503504E0,-2.240994E0,-2.957689E1,-3.571412E1,-1.337645E0,-1.5235689E0,-3.1343096E1,-1.3594451E0,1.1181071E0,3.269237E1,1.1589017E0,1.419385E0,3.8319042E1,3.2736614E1,1.8462538E0,4.3178925E1,2.735795E0,4.625751E1,1.3701903E0,3.407028E1,3.7766342E1,4.3181038E1,-4.9281415E-1,-8.933673E-1,-2.469465E-1,-6.1415833E-1,-4.9714032E-1,-1.4518134E-1,-1.6610506E-1,-5.5720574E-1,-2.0079587E-1,3.7408955E-2,-7.7305384E-2,-4.237483E-1,-4.0110026E-2,1.6987406E-1,2.111678E-1,-1.8360738E-1,-1.5834478E0,-1.3590232E0,-1.3870226E0,-1.866794E0,-1.2513071E0,-1.6191235E0,1.9640797E0,1.5772914E0,1.7175177E0,2.057779E0,1.4621578E0,1.7295891E0,2.2890875E0,1.9020337E0,2.0378942E0,2.3855681E0,1.5502964E0,1.8191986E0,1.7617874E0,2.0476854E0,2.2311733E0,1.8895401E0],"categories":[],"categories_nodes":[],"categories_segments":[],"categories_sizes":[],"default_left":[0,0,0,0,0,0,0,0,0,0,0,0,0,0,0,0,0,0,0,0,0,0,0,0,0,0,0,0,0,0,0,0,0,0,0,0,0,0,0,0,0,0,0,0,0,0,0,0,0,0,0,0,0,0,0,0,0,0,0,0,0,0,0,0,0,0,0,0,0,0,0,0,0,0,0,0,0,0,0,0,0,0,0,0,0,0,0,0,0,0,0,0,0,0,0,0,0],"id":18,"left_children":[1,3,5,7,9,11,13,15,17,19,21,23,25,27,29,31,33,35,37,39,41,-1,43,45,47,-1,49,51,53,55,57,59,61,63,65,67,69,71,73,75,77,-1,-1,79,-1,-1,81,-1,-1,83,85,-1,87,-1,89,-1,91,93,95,-1,-1,-1,-1,-1,-1,-1,-1,-1,-1,-1,-1,-1,-1,-1,-1,-1,-1,-1,-1,-1,-1,-1,-1,-1,-1,-1,-1,-1,-1,-1,-1,-1,-1,-1,-1,-1,-1],"loss_changes":[4.8512015E6,9.305291E5,3.0129E4,4.545246E4,6.789625E3,6.1279375E3,1.772475E4,1.3726891E4,3.0004393E4,5.363125E3,9.565E2,1.7381875E3,2.059625E3,6.530875E3,1.034275E4,3.2147344E3,6.2983164E3,1.8705586E4,5.2776855E3,4.26575E3,3.82875E2,0E0,7.1228125E2,5.6753125E2,9.20625E1,0E0,1.2345312E3,8.38875E2,2.213875E3,9.888125E2,3.0965E3,1.6853594E3,1.2815801E3,2.4455776E3,3.8014648E3,5.0247334E3,9.214695E3,2.5326562E3,3.0036807E3,4.0175E2,3.1734062E3,0E0,0E0,3.2626562E2,0E0,0E0,6.9534375E2,0E0,0E0,1.4351562E2,1.875E2,0E0,1.22421875E2,0E0,1.1488125E3,0E0,4.1784375E2,1.1223438E3,8.63375E2,0E0,0E0,0E0,0E0,0E0,0E0,0E0,0E0,0E0,0E0,0E0,0E0,0E0,0E0,0E0,0E0,0E0,0E0,0E0,0E0,0E0,0E0,0E0,0E0,0E0,0E0,0E0,0E0,0E0,0E0,0E0,0E0,0E0,0E0,0E0,0E0,0E0,0E0],"parents":[2147483647,0,0,1,1,2,2,3,3,4,4,5,5,6,6,7,7,8,8,9,9,10,10,11,11,12,12,13,13,14,14,15,15,16,16,17,17,18,18,19,19,20,20,22,22,23,23,24,24,26,26,27,27,28,28,29,29,30,30,31,31,32,32,33,33,34,34,35,35,36,36,37,37,38,38,39,39,40,40,43,43,46,46,49,49,50,50,52,52,54,54,56,56,57,57,58,58],"right_children":[2,4,6,8,10,12,14,16,18,20,22,24,26,28,30,32,34,36,38,40,42,-1,44,46,48,-1,50,52,54,56,58,60,62,64,66,68,70,72,74,76,78,-1,-1,80,-1,-1,82,-1,-1,84,86,-1,88,-1,90,-1,92,94,96,-1,-1,-1,-1,-1,-1,-1,-1,-1,-1,-1,-1,-1,-1,-1,-1,-1,-1,-1,-1,-1,-1,-1,-1,-1,-1,-1,-1,-1,-1,-1,-1,-1,-1,-1,-1,-1,-1],"split_conditions":[1E0,1E0,5E0,4E0,6E0,5.1E1,7.1E1,4.1E1,6.6E1,6.2E1,8.7E1,8.5E1,7E-1,4.2E1,3.6E1,1.9E2,7.1E1,7.1E1,8.6E1,7.1E1,8.6E1,-1.3372699E0,5E1,1.3E1,1.35E2,2.163419E0,7.2E1,6E0,6.99E-1,1E2,1.95E2,7.13E-1,6.65E-1,9.1E1,7.02E-1,1.79E2,7E-1,1.01E2,7.02E-1,2.03E2,6.99E-1,-1.337645E0,-1.5235689E0,7.06E-1,-1.3594451E0,1.1181071E0,6.93E-1,1.1589017E0,1.419385E0,6E0,6E0,1.8462538E0,1E1,2.735795E0,1.03E2,1.3701903E0,6E0,7E1,1E1,-4.9281415E-1,-8.933673E-1,-2.469465E-1,-6.1415833E-1,-4.9714032E-1,-1.4518134E-1,-1.6610506E-1,-5.5720574E-1,-2.0079587E-1,3.7408955E-2,-7.7305384E-2,-4.237483E-1,-4.0110026E-2,1.6987406E-1,2.111678E-1,-1.8360738E-1,-1.5834478E0,-1.3590232E0,-1.3870226E0,-1.866794E0,-1.2513071E0,-1.6191235E0,1.9640797E0,1.5772914E0,1.7175177E0,2.057779E0,1.4621578E0,1.7295891E0,2.2890875E0,1.9020337E0,2.0378942E0,2.3855681E0,1.5502964E0,1.8191986E0,1.7617874E0,2.0476854E0,2.2311733E0,1.8895401E0],"split_indices":[10,8,3,3,3,0,2,0,0,0,2,2,4,0,0,7,2,2,2,2,2,0,0,0,7,0,2,16,4,7,7,4,4,7,4,7,4,7,4,7,4,0,0,4,0,0,4,0,0,16,16,0,16,0,7,0,16,0,16,0,0,0,0,0,0,0,0,0,0,0,0,0,0,0,0,0,0,0,0,0,0,0,0,0,0,0,0,0,0,0,0,0,0,0,0,0,0],"split_type":[0,0,0,0,0,0,0,0,0,0,0,0,0,0,0,0,0,0,0,0,0,0,0,0,0,0,0,0,0,0,0,0,0,0,0,0,0,0,0,0,0,0,0,0,0,0,0,0,0,0,0,0,0,0,0,0,0,0,0,0,0,0,0,0,0,0,0,0,0,0,0,0,0,0,0,0,0,0,0,0,0,0,0,0,0,0,0,0,0,0,0,0,0,0,0,0,0],"sum_hessian":[9.564E3,7.149E3,2.415E3,4.717E3,2.432E3,7.78E2,1.637E3,1.269E3,3.448E3,9.79E2,1.453E3,3.93E2,3.85E2,7.15E2,9.22E2,4.76E2,7.93E2,2.271E3,1.177E3,5.77E2,4.02E2,1.09E3,3.63E2,2.71E2,1.22E2,6.2E1,3.23E2,2.54E2,4.61E2,2.76E2,6.46E2,2.41E2,2.35E2,3.48E2,4.45E2,8.9E2,1.381E3,8.55E2,3.22E2,2.52E2,3.25E2,2.83E2,1.19E2,1.73E2,1.9E2,1.5E1,2.56E2,4.7E1,7.5E1,1.38E2,1.85E2,1.15E2,1.39E2,7.4E1,3.87E2,5.8E1,2.18E2,3.18E2,3.28E2,3.5E1,2.06E2,2.9E1,2.06E2,5.9E1,2.89E2,7.6E1,3.69E2,4.08E2,4.82E2,2.31E2,1.15E3,1.82E2,6.73E2,5.8E1,2.64E2,1.28E2,1.24E2,5.8E1,2.67E2,2.8E1,1.45E2,3.3E1,2.23E2,6.3E1,7.5E1,7E1,1.15E2,8.7E1,5.2E1,8.7E1,3E2,1E2,1.18E2,1.84E2,1.34E2,2.53E2,7.5E1],"tree_param":{"num_deleted":"0","num_feature":"17","num_nodes":"97","size_leaf_vector":"1"}},{"base_weights":[6.088192E-2,-1.2292254E1,3.6834686E1,-4.586214E0,-2.7420519E1,3.3511303E1,4.064264E1,-7.496185E0,-1.2382287E0,-2.954829E1,-2.594267E1,2.9148186E1,3.5727463E1,3.5973892E1,4.31033E1,-1.1638962E1,-5.1274896E0,-5.142172E0,6.046899E-1,-3.1596352E1,-2.6486485E1,-1.2529877E0,-2.732383E1,2.4941622E1,3.06159E1,4.27521E1,3.434299E1,3.1340364E1,3.7936577E1,2.4779918E0,4.1753963E1,-8.478054E0,-1.3651032E1,-7.058338E0,-1.452324E0,2.1762614E0,-6.567992E0,2.2172494E0,-1.5288253E0,-1.2616194E0,-3.262141E1,-2.7711714E1,-1.2225922E0,-2.9926437E1,-1.3063393E0,1.1121383E0,1.3676637E0,2.7427221E1,3.248051E1,1.519916E0,2.1794279E0,3.736807E1,3.172291E1,1.4026446E0,1.6965557E0,1.7691487E0,2.0954347E0,2.294347E0,3.976495E1,-5.496148E-1,-2.68925E-1,-3.7563655E-1,-7.491997E-1,-4.2242624E-2,-4.109214E-1,1.0579296E-1,-1.7537439E-1,-4.6837162E-2,2.217351E-1,-4.762198E-1,-2.1292642E-1,2.8923843E-2,1.9966291E-1,-1.5368703E-1,1.0629069E-1,-1.6766589E0,-1.259497E0,-1.4989679E0,-1.2796506E0,-1.5444727E0,-1.1756009E0,1.8180274E0,1.2898185E0,1.7617663E0,1.4480333E0,1.9477867E0,1.5879163E0,1.5006962E0,1.8348198E0,1.8705609E0,2.1793458E0],"categories":[],"categories_nodes":[],"categories_segments":[],"categories_sizes":[],"default_left":[0,0,0,0,0,0,0,0,0,0,0,0,0,0,0,0,0,0,0,0,0,0,0,0,0,0,0,0,0,0,0,0,0,0,0,0,0,0,0,0,0,0,0,0,0,0,0,0,0,0,0,0,0,0,0,0,0,0,0,0,0,0,0,0,0,0,0,0,0,0,0,0,0,0,0,0,0,0,0,0,0,0,0,0,0,0,0,0,0,0,0],"id":19,"left_children":[1,3,5,7,9,11,13,15,17,19,21,23,25,27,29,31,33,35,37,39,41,-1,43,45,47,49,51,53,55,-1,57,59,61,63,65,67,69,71,73,-1,75,77,-1,79,-1,-1,-1,81,83,-1,-1,85,87,-1,-1,-1,-1,-1,89,-1,-1,-1,-1,-1,-1,-1,-1,-1,-1,-1,-1,-1,-1,-1,-1,-1,-1,-1,-1,-1,-1,-1,-1,-1,-1,-1,-1,-1,-1,-1,-1],"loss_changes":[4.3755475E6,8.404059E5,2.928175E4,4.6539703E4,6.8785E3,1.151275E4,1.135425E4,2.502061E4,1.5997268E4,5.365375E3,1.0709375E3,1.9659375E3,6.85875E3,2.3872188E3,4.29E3,5.7904688E3,1.1541492E4,7.4547227E3,5.2019336E3,3.0069375E3,3.218125E2,0E0,9.3225E2,1.6767188E2,1.0295625E3,8.3265625E1,4.5223125E3,8.953906E1,1.2683438E3,0E0,3.1895E3,2.7759023E3,4.516258E3,7.683297E3,4.1288193E3,8.270767E2,4.034205E3,2.5031514E3,3.6822446E3,0E0,2.557625E3,3.9948438E2,0E0,2.9985938E2,0E0,0E0,0E0,8.915E2,9.027344E2,0E0,0E0,1.6859688E3,2.2322812E3,0E0,0E0,0E0,0E0,0E0,2.1395625E3,0E0,0E0,0E0,0E0,0E0,0E0,0E0,0E0,0E0,0E0,0E0,0E0,0E0,0E0,0E0,0E0,0E0,0E0,0E0,0E0,0E0,0E0,0E0,0E0,0E0,0E0,0E0,0E0,0E0,0E0,0E0,0E0],"parents":[2147483647,0,0,1,1,2,2,3,3,4,4,5,5,6,6,7,7,8,8,9,9,10,10,11,11,12,12,13,13,14,14,15,15,16,16,17,17,18,18,19,19,20,20,22,22,23,23,24,24,25,25,26,26,27,27,28,28,30,30,31,31,32,32,33,33,34,34,35,35,36,36,37,37,38,38,40,40,41,41,43,43,47,47,48,48,51,51,52,52,58,58],"right_children":[2,4,6,8,10,12,14,16,18,20,22,24,26,28,30,32,34,36,38,40,42,-1,44,46,48,50,52,54,56,-1,58,60,62,64,66,68,70,72,74,-1,76,78,-1,80,-1,-1,-1,82,84,-1,-1,86,88,-1,-1,-1,-1,-1,90,-1,-1,-1,-1,-1,-1,-1,-1,-1,-1,-1,-1,-1,-1,-1,-1,-1,-1,-1,-1,-1,-1,-1,-1,-1,-1,-1,-1,-1,-1,-1,-1],"split_conditions":[1E0,1E0,8E0,8E0,6E0,3.8E1,4.2E1,4E1,3.7E1,6.2E1,3.2E1,1.16E2,7E-1,1.37E2,7E-1,2.1E1,1.106E1,7E-1,3.1E1,6.99E-1,8.2E1,-1.2529877E0,3.2E1,2.4E1,6E0,7E1,2.5E1,6E0,9.7E0,2.4779918E0,1.6E1,2E2,7.05E-1,7E-1,1.9E1,6.19E0,6E0,1.98E2,7.8E1,-1.2616194E0,2.089E1,1.84E2,-1.2225922E0,3.03E2,-1.3063393E0,1.1121383E0,1.3676637E0,6.95E-1,1E1,1.519916E0,2.1794279E0,1E1,1.38E1,1.4026446E0,1.6965557E0,1.7691487E0,2.0954347E0,2.294347E0,7.7E1,-5.496148E-1,-2.68925E-1,-3.7563655E-1,-7.491997E-1,-4.2242624E-2,-4.109214E-1,1.0579296E-1,-1.7537439E-1,-4.6837162E-2,2.217351E-1,-4.762198E-1,-2.1292642E-1,2.8923843E-2,1.9966291E-1,-1.5368703E-1,1.0629069E-1,-1.6766589E0,-1.259497E0,-1.4989679E0,-1.2796506E0,-1.5444727E0,-1.1756009E0,1.8180274E0,1.2898185E0,1.7617663E0,1.4480333E0,1.9477867E0,1.5879163E0,1.5006962E0,1.8348198E0,1.8705609E0,2.1793458E0],"split_indices":[10,8,3,3,3,0,0,0,0,0,5,7,4,7,4,5,6,4,5,4,0,0,0,0,16,7,5,16,6,0,5,7,4,4,5,6,16,7,0,0,6,7,0,7,0,0,0,4,16,0,0,16,6,0,0,0,0,0,0,0,0,0,0,0,0,0,0,0,0,0,0,0,0,0,0,0,0,0,0,0,0,0,0,0,0,0,0,0,0,0,0],"split_type":[0,0,0,0,0,0,0,0,0,0,0,0,0,0,0,0,0,0,0,0,0,0,0,0,0,0,0,0,0,0,0,0,0,0,0,0,0,0,0,0,0,0,0,0,0,0,0,0,0,0,0,0,0,0,0,0,0,0,0,0,0,0,0,0,0,0,0,0,0,0,0,0,0,0,0,0,0,0,0,0,0,0,0,0,0,0,0,0,0,0,0],"sum_hessian":[9.63E3,7.209E3,2.421E3,4.777E3,2.432E3,1.298E3,1.123E3,2.555E3,2.222E3,9.89E2,1.443E3,4.42E2,8.56E2,3.93E2,7.3E2,9.28E2,1.627E3,7.12E2,1.51E3,5.87E2,4.02E2,8.92E2,5.51E2,1.19E2,3.23E2,1.36E2,7.2E2,1.22E2,2.71E2,1.2E2,6.1E2,3.63E2,5.65E2,1.066E3,5.61E2,1.16E2,5.96E2,8.6E2,6.5E2,8.5E1,5.02E2,2.43E2,1.59E2,1.66E2,3.85E2,6.1E1,5.8E1,1.25E2,1.98E2,1.1E1,1.25E2,3.28E2,3.92E2,5.9E1,6.3E1,1.71E2,1E2,1.91E2,4.19E2,1.99E2,1.64E2,1.02E2,4.63E2,1.68E2,8.98E2,2.05E2,3.56E2,4.9E1,6.7E1,2.6E2,3.36E2,4.48E2,4.12E2,4.57E2,1.93E2,4.44E2,5.8E1,1.11E2,1.32E2,1.41E2,2.5E1,1.6E1,1.09E2,1.06E2,9.2E1,2.51E2,7.7E1,2.97E2,9.5E1,2.66E2,1.53E2],"tree_param":{"num_deleted":"0","num_feature":"17","num_nodes":"91","size_leaf_vector":"1"}},{"base_weights":[2.5715446E-1,9.012225E0,-2.6026316E1,3.5105194E1,-4.3144045E0,-2.7530092E1,-2.4266247E1,3.203126E1,3.8553432E1,-8.432937E0,-2.197698E0,-2.6203783E1,-3.1173208E1,-1.1681929E0,-2.5134552E1,3.536763E1,2.9573824E1,4.232167E1,3.566393E1,-5.2581573E0,-1.0710815E1,-6.718939E-1,-6.0642533E0,-2.7570578E1,-1.2022876E0,-1.2124532E0,-3.2486423E1,-1.2057827E0,-1.3355176E0,2.06586E0,3.398699E1,3.3393787E1,2.7721416E1,2.4486442E0,4.0988583E1,3.22127E1,3.8267708E1,-6.9899E0,6.0288846E-1,-7.1585426E0,-1.2469791E1,-1.8819517E0,2.959288E0,-8.739381E0,-3.3932714E0,-2.5681847E1,-2.9434948E1,-2.963212E1,-3.5504707E1,1.5311196E0,1.8172859E0,1.7430347E0,1.4395306E0,1.1769022E0,1.4504114E0,2.2060525E0,1.909284E0,1.5038894E0,1.8603995E0,2.1075E0,1.6420147E0,-4.9026537E-1,-1.9147138E-1,1.03488564E-1,-2.0840804E-1,-5.7649106E-1,-2.2934543E-1,-3.6254057E-1,-6.732041E-1,5.7248797E-2,-1.7348816E-1,1.9733694E-1,8.098231E-3,-1.3863824E-1,-4.9025702E-1,-3.0232748E-1,-8.830323E-3,-1.3732799E0,-1.2089976E0,-1.1531174E0,-1.5224708E0,-1.5731236E0,-1.287989E0,-1.831555E0,-1.3436217E0],"categories":[],"categories_nodes":[],"categories_segments":[],"categories_sizes":[],"default_left":[0,0,0,0,0,0,0,0,0,0,0,0,0,0,0,0,0,0,0,0,0,0,0,0,0,0,0,0,0,0,0,0,0,0,0,0,0,0,0,0,0,0,0,0,0,0,0,0,0,0,0,0,0,0,0,0,0,0,0,0,0,0,0,0,0,0,0,0,0,0,0,0,0,0,0,0,0,0,0,0,0,0,0,0,0],"id":20,"left_children":[1,3,5,7,9,11,13,15,17,19,21,23,25,-1,27,29,31,33,35,37,39,41,43,45,-1,-1,47,-1,-1,-1,49,51,53,-1,55,57,59,61,63,65,67,69,71,73,75,77,79,81,83,-1,-1,-1,-1,-1,-1,-1,-1,-1,-1,-1,-1,-1,-1,-1,-1,-1,-1,-1,-1,-1,-1,-1,-1,-1,-1,-1,-1,-1,-1,-1,-1,-1,-1,-1,-1],"loss_changes":[2.2157668E6,2.5118178E6,5.69475E3,2.464225E4,4.1668562E4,5.4105625E3,2.830625E2,9.58175E3,1.0961E4,1.1679242E4,1.8638012E4,2.1399375E3,2.2890625E3,0E0,2.4346875E2,3.065E3,4.3965E3,2.346125E3,4.64625E3,6.9067305E3,5.8072344E3,9.966521E3,6.356957E3,1.2667812E3,0E0,0E0,1.3708438E3,0E0,0E0,0E0,2.4357188E3,6.173125E2,2.0735312E3,0E0,1.9595E3,1.9455312E3,6.362375E3,4.632545E3,1.1001942E3,3.4865215E3,3.1694766E3,8.179535E3,1.5651284E3,2.807664E3,3.830393E3,1.18359375E2,1.1219531E3,2.5404688E2,2.9275E2,0E0,0E0,0E0,0E0,0E0,0E0,0E0,0E0,0E0,0E0,0E0,0E0,0E0,0E0,0E0,0E0,0E0,0E0,0E0,0E0,0E0,0E0,0E0,0E0,0E0,0E0,0E0,0E0,0E0,0E0,0E0,0E0,0E0,0E0,0E0,0E0],"parents":[2147483647,0,0,1,1,2,2,3,3,4,4,5,5,6,6,7,7,8,8,9,9,10,10,11,11,12,12,14,14,15,15,16,16,17,17,18,18,19,19,20,20,21,21,22,22,23,23,26,26,30,30,31,31,32,32,34,34,35,35,36,36,37,37,38,38,39,39,40,40,41,41,42,42,43,43,44,44,45,45,46,46,47,47,48,48],"right_children":[2,4,6,8,10,12,14,16,18,20,22,24,26,-1,28,30,32,34,36,38,40,42,44,46,-1,-1,48,-1,-1,-1,50,52,54,-1,56,58,60,62,64,66,68,70,72,74,76,78,80,82,84,-1,-1,-1,-1,-1,-1,-1,-1,-1,-1,-1,-1,-1,-1,-1,-1,-1,-1,-1,-1,-1,-1,-1,-1,-1,-1,-1,-1,-1,-1,-1,-1,-1,-1,-1,-1],"split_conditions":[1E0,1E0,8E0,8E0,5E0,8.6E1,2.7E1,7.1E1,7.1E1,7.1E1,8.6E1,9.41E0,6.99E-1,-1.1681929E0,8.2E1,6.99E-1,1.8E1,6.9E-1,6E0,1.703E1,1.9E1,1.317E1,6.67E0,2.6E1,-1.2022876E0,-1.2124532E0,2.8E1,-1.2057827E0,-1.3355176E0,2.06586E0,6E0,1E1,2E0,2.4486442E0,2.5E1,1.236E1,1E1,1.99E2,1E1,1.45E2,6.95E-1,1.8E1,1E1,7E-1,1.98E2,6E0,7.05E-1,8.95E0,1.854E1,1.5311196E0,1.8172859E0,1.7430347E0,1.4395306E0,1.1769022E0,1.4504114E0,2.2060525E0,1.909284E0,1.5038894E0,1.8603995E0,2.1075E0,1.6420147E0,-4.9026537E-1,-1.9147138E-1,1.03488564E-1,-2.0840804E-1,-5.7649106E-1,-2.2934543E-1,-3.6254057E-1,-6.732041E-1,5.7248797E-2,-1.7348816E-1,1.9733694E-1,8.098231E-3,-1.3863824E-1,-4.9025702E-1,-3.0232748E-1,-8.830323E-3,-1.3732799E0,-1.2089976E0,-1.1531174E0,-1.5224708E0,-1.5731236E0,-1.287989E0,-1.831555E0,-1.3436217E0],"split_indices":[8,9,3,3,3,2,5,2,2,2,2,6,4,0,2,4,5,4,16,6,5,6,6,5,0,0,5,0,0,0,16,16,3,0,5,6,16,7,16,7,4,5,16,4,7,16,4,6,6,0,0,0,0,0,0,0,0,0,0,0,0,0,0,0,0,0,0,0,0,0,0,0,0,0,0,0,0,0,0,0,0,0,0,0,0],"split_type":[0,0,0,0,0,0,0,0,0,0,0,0,0,0,0,0,0,0,0,0,0,0,0,0,0,0,0,0,0,0,0,0,0,0,0,0,0,0,0,0,0,0,0,0,0,0,0,0,0,0,0,0,0,0,0,0,0,0,0,0,0,0,0,0,0,0,0,0,0,0,0,0,0,0,0,0,0,0,0,0,0,0,0,0,0],"sum_hessian":[9.627E3,7.222E3,2.405E3,2.441E3,4.781E3,1.289E3,1.116E3,1.296E3,1.145E3,1.622E3,3.159E3,9.51E2,3.38E2,5.61E2,5.55E2,5.44E2,7.52E2,4.91E2,6.54E2,6.79E2,9.43E2,2.266E3,8.93E2,5.75E2,3.76E2,5.7E1,2.81E2,3.47E2,2.08E2,9.7E1,4.47E2,2.4E2,5.12E2,7.6E1,4.15E2,2.87E2,3.67E2,5.24E2,1.55E2,3.14E2,6.29E2,1.7E3,5.66E2,4.45E2,4.48E2,2.93E2,2.82E2,1.5E2,1.31E2,1.9E2,2.57E2,1.77E2,6.3E1,1.25E2,3.87E2,1.89E2,2.26E2,2.06E2,8.1E1,2.1E2,1.57E2,2.76E2,2.48E2,1.19E2,3.6E1,1.15E2,1.99E2,1.02E2,5.27E2,5.85E2,1.115E3,4.18E2,1.48E2,6.8E1,3.77E2,2.45E2,2.03E2,1.26E2,1.67E2,4.2E1,2.4E2,9.7E1,5.3E1,1.13E2,1.8E1],"tree_param":{"num_deleted":"0","num_feature":"17","num_nodes":"85","size_leaf_vector":"1"}},{"base_weights":[-1.298805E-1,-1.1280858E1,3.3119392E1,-4.227688E0,-2.4778841E1,2.8482876E1,3.5300983E1,-9.728454E0,-2.829425E0,-2.7200294E1,-2.3594652E1,1.7174021E0,2.717149E1,3.8775085E1,3.266219E1,-3.9703934E0,-1.0854794E1,1.0946216E-1,-4.8712587E0,-2.4496353E1,-2.9193659E1,-2.2946129E1,-2.5276041E1,2.4484987E1,2.9033615E1,3.4951176E1,4.1255913E1,3.6575287E1,3.0653137E1,-1.9368799E0,-8.729609E0,-7.110572E0,-1.2720388E1,-2.364002E0,1.8821009E0,7.147242E-1,-5.995542E0,-1.1031054E0,-2.6346071E1,-1.1382288E0,-3.0144896E1,-2.3588837E1,-1.101878E0,-1.452669E0,-2.427237E1,1.1018203E0,2.5999426E1,1.5902346E0,2.6211294E1,1.9432566E0,3.2143364E1,4.4793873E1,1.8082533E0,2.160915E0,3.5203384E1,2.756938E1,3.2926994E1,-2.0940395E-1,1.0306237E-1,-5.42772E-1,-1.7320701E-1,-5.305571E-1,-2.5311154E-1,-7.795437E-1,-5.330917E-1,2.0033186E-2,-2.4698928E-1,2.4062264E-1,-9.9845044E-2,2.1369019E-1,-4.0453035E-2,-4.1305843E-1,-1.8242632E-1,-1.4327615E0,-1.1675291E0,-1.2543443E0,-1.5616226E0,-1.2389205E0,-1.1355672E0,-1.1345792E0,-1.3139994E0,1.4594768E0,1.0996721E0,1.2410423E0,1.5258809E0,1.3911756E0,1.6737562E0,2.1620665E0,2.6838262E0,1.6117693E0,1.9029382E0,1.268208E0,1.5601214E0,1.8469908E0,1.3798181E0],"categories":[],"categories_nodes":[],"categories_segments":[],"categories_sizes":[],"default_left":[0,0,0,0,0,0,0,0,0,0,0,0,0,0,0,0,0,0,0,0,0,0,0,0,0,0,0,0,0,0,0,0,0,0,0,0,0,0,0,0,0,0,0,0,0,0,0,0,0,0,0,0,0,0,0,0,0,0,0,0,0,0,0,0,0,0,0,0,0,0,0,0,0,0,0,0,0,0,0,0,0,0,0,0,0,0,0,0,0,0,0,0,0,0,0],"id":21,"left_children":[1,3,5,7,9,11,13,15,17,19,21,-1,23,25,27,29,31,33,35,37,39,41,43,45,47,49,51,53,55,57,59,61,63,65,67,69,71,-1,73,-1,75,77,-1,-1,79,-1,81,-1,83,-1,85,87,-1,-1,89,91,93,-1,-1,-1,-1,-1,-1,-1,-1,-1,-1,-1,-1,-1,-1,-1,-1,-1,-1,-1,-1,-1,-1,-1,-1,-1,-1,-1,-1,-1,-1,-1,-1,-1,-1,-1,-1,-1,-1],"loss_changes":[3.556349E6,6.8373956E5,2.3355E4,3.6267477E4,6.4215E3,5.0291875E3,1.3706E4,6.155586E3,2.2587713E4,3.607625E3,1.2285625E3,0E0,2.4804375E3,5.191E3,6.2226875E3,1.5111377E3,5.4887344E3,6.7741597E3,1.3953199E4,9.7634375E2,2.1033125E3,1.8275E2,1.006875E3,4.160625E2,2.0699062E3,1.8427188E3,5.9186875E3,1.3141562E3,3.461625E3,1.0169104E3,4.8705737E2,1.8663721E3,2.9747656E3,4.5955947E3,1.0240047E4,2.0266846E3,9.800656E3,0E0,6.537656E2,0E0,1.3837188E3,1.5796875E2,0E0,0E0,5.5396875E2,0E0,1.3976328E3,0E0,3.7466406E2,0E0,4.0484375E1,1.02040625E3,0E0,0E0,1.00346875E3,1.3740938E3,6.5465E3,0E0,0E0,0E0,0E0,0E0,0E0,0E0,0E0,0E0,0E0,0E0,0E0,0E0,0E0,0E0,0E0,0E0,0E0,0E0,0E0,0E0,0E0,0E0,0E0,0E0,0E0,0E0,0E0,0E0,0E0,0E0,0E0,0E0,0E0,0E0,0E0,0E0,0E0],"parents":[2147483647,0,0,1,1,2,2,3,3,4,4,5,5,6,6,7,7,8,8,9,9,10,10,12,12,13,13,14,14,15,15,16,16,17,17,18,18,19,19,20,20,21,21,22,22,23,23,24,24,25,25,26,26,27,27,28,28,29,29,30,30,31,31,32,32,33,33,34,34,35,35,36,36,38,38,40,40,41,41,44,44,46,46,48,48,50,50,51,51,54,54,55,55,56,56],"right_children":[2,4,6,8,10,12,14,16,18,20,22,-1,24,26,28,30,32,34,36,38,40,